2405 128
706 -0.12833992 0.7743263 0.0917454 -0.110682294 0.2009126 0.62439984 -0.17116493 -0.754741 0.14815912 -0.07561191 0.34309763 0.06321773 -0.53049314 -0.45479777 -0.107899435 -0.60861635 0.49020278 -0.14513984 0.1794305 -0.094427355 0.21350805 0.32760286 -0.27082697 0.20679289 -0.23121446 0.21683438 0.79566073 -1.0337629 -0.27221465 -0.0078006373 -0.04110724 -0.25816432 -0.5386874 -0.4601133 0.16848545 0.21908167 0.31990883 -0.014990192 0.038758513 -0.039502434 -0.09322918 -0.059120692 0.011531517 -0.75966126 0.30706742 0.40199792 -0.3135904 -0.7928285 0.73896784 -0.6335448 1.027917 -0.16399457 0.04652284 -0.045841742 0.3939772 -0.22887069 -0.1643612 0.11510094 0.34342682 0.22837292 0.077752665 0.06704545 0.9554172 -0.039363675 0.23413275 0.04123967 0.06799711 -0.1154923 -0.039124183 -0.43617254 -0.070300706 0.20718622 0.34636432 -0.09551872 0.566445 0.33230484 0.39010218 0.080460794 0.37181503 -0.33464658 0.28437403 0.07895566 -0.45370993 -0.16420828 -1.3479724 -0.28965306 -0.61150694 -0.09473361 -0.19882444 0.24401341 -0.09736427 -0.16505036 -0.14516853 0.3244607 0.35582408 -0.21194342 0.34980392 -0.47333196 0.85054 -0.3144166 0.97613174 0.020973032 0.190866 -0.18797791 0.15411386 0.6861509 -0.27878103 0.22345531 0.11263153 0.07094815 0.046879962 -0.24236652 -0.4605675 -0.360071 0.12877716 0.005855041 -0.434816 -0.075888604 -0.893752 -0.15256743 0.08742764 0.14292037 -0.36632508 -0.28921023 -0.5713114 0.2159305 -0.06681565 -0.13193777
731 -0.23149681 0.7042701 0.038057756 -0.19038807 0.3708394 0.6962883 -0.09350439 -1.0413506 0.019210877 -0.17566712 0.13897002 -0.005771965 -0.34335405 -0.3079993 -0.025909245 -0.65759945 0.7479543 -0.18437651 0.4156079 -0.05289721 0.34359962 0.55728114 -0.23057254 0.26140705 -0.27023187 0.044840388 1.0103514 -1.2005247 -0.16150008 0.0027450724 0.013262384 -0.5529162 -0.8478427 -0.6854606 0.00885085 0.40208212 0.24596518 0.07752181 -0.16465552 -0.16243328 -0.07653106 -0.16046318 -0.15392095 -0.8837763 0.6750034 0.433242 -0.2200147 -0.70319253 0.76747984 -0.9393355 0.96356475 0.012911251 0.008367651 -0.0830023 0.2795997 -0.28126964 -0.038859397 -0.037393436 0.5544967 0.6075657 0.036628556 -0.0189996 0.8507486 -0.06599111 0.41034326 -0.1311544 0.074960135 0.06276337 0.12966207 -0.56063235 0.1250705 0.50128233 0.5589556 -0.2747774 0.57627845 0.3472413 0.42468908 0.2037033 0.23651989 -0.53866315 0.31605935 0.027501872 -0.5572886 -0.06314436 -1.2684556 -0.33632144 -0.53740335 0.13524906 -0.089923725 0.31308058 -0.17923184 0.027828323 -0.6251265 0.44760764 0.3091157 -0.16023083 0.5540159 -0.40706867 0.95591044 0.18212779 1.0506097 -0.17696196 0.022931576 -0.31787434 -0.12987432 0.83677936 -0.3906568 0.15944962 0.38757417 0.12775022 0.1547791 -0.186743 -0.47410184 -0.46897987 0.17268352 -0.002383186 -0.2513227 -0.031199975 -0.98274446 -0.5056239 0.1373838 0.21628188 -0.284693 -0.37629393 -0.55583674 0.4129693 -0.19875035 -0.2316114
9 0.14764734 -0.20025547 0.011191695 -0.25987837 0.4816859 -0.10642109 -0.05387813 0.23028101 0.108483516 -0.18608893 0.35404322 -0.055811495 0.062271707 0.2161623 -0.018207544 -0.15579195 -0.37942824 -0.2805664 -0.22153568 -0.0862758 -0.105832964 -0.37961245 -0.10719123 -0.2306066 -0.1953982 -0.18509673 0.4525645 -0.29041544 0.05391835 -0.15191536 0.37346667 -0.24544193 0.0718708 -0.124060065 0.6330167 -0.13455653 0.030100437 -0.31765336 0.23711513 0.251414 0.18830377 -0.25587907 -0.07402973 0.12577276 0.3408392 0.13405858 -0.2765476 0.062151413 0.58772457 0.060307737 0.09560095 -0.092300534 0.31259674 -0.55368 0.33107316 0.71449095 0.17677803 -0.13284342 0.032883592 0.57833683 0.38711694 0.62575245 0.3494939 -0.1206156 0.27957895 -0.09288272 0.023162374 -0.1177334 -0.1883012 0.115502745 0.047313306 -0.09621411 0.23771082 -0.06762127 -0.057145502 0.1842213 0.1369292 -0.30367646 -0.1446514 0.012201837 -0.091222 -0.1578231 0.026690328 -0.019450996 -0.29476112 -0.13272065 -0.11711837 0.16279423 -0.3836424 -0.13442303 0.046687018 -0.143684 -0.1439913 -0.2831991 -0.13974497 -0.019256018 0.44753987 -0.037788145 -0.060866795 -0.051089667 0.24714532 0.12128661 0.29446948 -0.25246748 -0.053312883 -0.14976616 -0.14924921 0.3667084 -0.25756624 -0.06601281 -0.10290999 0.018767362 0.27952436 0.09996095 -0.4995378 0.23675907 -0.38374278 -0.07378859 -0.16125298 -0.11899109 -0.400647 0.091466896 0.20441878 0.086220376 0.13842575 -0.39343154 0.1706962 -0.18001369
393 0.10600704 0.13161057 -0.039955262 0.12235812 0.08709018 0.2289521 -0.03826196 0.123963416 -0.06632718 -0.06435259 0.22769494 -0.06444244 -0.18767159 -0.05673498 -0.2249706 -0.06714957 -0.14746481 -0.07421495 -0.37760207 -0.20571053 -0.20989494 -0.0021425192 0.0771812 -0.17530642 0.023021571 -0.21833566 0.057407394 -0.17803745 0.03636007 -0.008377518 -0.19204675 -0.30825615 -0.12106049 0.1543542 -0.011318884 -0.011957923 -0.033439904 0.13766769 0.17467493 0.18463033 0.23880662 0.112122655 -0.032686926 0.056460194 -0.055340115 0.18264861 0.19544078 0.10944445 0.22114874 -0.12452194 -0.065298416 -0.10194033 0.24026927 -0.21962766 0.08496112 0.044847246 0.043525886 0.049733967 0.040216874 -0.09919666 0.32243598 0.08793115 0.0016443 -0.10569447 -0.047363184 -0.0061388547 0.2958951 -0.096252955 -0.06969929 -0.1244113 -0.030535169 -0.045949146 0.004058598 -0.20602332 0.00062624365 0.018130118 -0.007263612 -0.006261852 0.12268526 0.14669625 -0.14380063 0.03210676 0.04864749 -0.047928832 0.0141953705 -0.24528597 -0.2176903 0.12153135 -0.11443946 0.17353162 -0.04844922 0.022401528 0.2199468 0.33602297 -0.06694347 -0.047591746 -0.11012777 -0.017267102 -0.12112588 0.059636977 0.018402798 0.04882079 0.22068836 0.24587576 0.103500165 0.1255061 -0.1347766 -0.053406537 0.0024989578 -0.07562228 -0.09284114 0.004037269 -0.14289792 -0.16922174 -0.14316912 0.24542414 -0.22344013 -0.14830488 -0.13834688 -0.2534199 -0.04837867 -0.033237003 0.08652148 -0.04216927 0.068295516 -0.05842025 0.09120965 0.10361945
1398 0.0664179 -0.19902593 -0.48784965 -0.10864348 0.01763728 0.061511807 -0.11358495 -0.22208077 0.0997834 0.13193259 0.1966064 -0.083241485 -0.15074757 -0.028826308 -0.49121556 -0.24878843 0.08634148 0.26319876 0.3631034 -0.08680412 0.28662902 0.20861274 -0.08316804 -0.08372703 0.1693343 0.40592593 0.07043285 0.06992301 -0.11263938 0.09079879 -0.02237947 -0.012324438 -0.017498726 0.14809121 0.17994829 0.013850159 0.38999316 -0.1884346 -0.2186548 -0.023788944 -0.15872031 0.442856 -0.16021834 0.018800648 -0.45856836 0.017881338 -0.10246421 0.2886204 -0.011760108 0.17024766 0.038713083 0.13947147 -0.08666217 -0.18403879 -0.27072906 0.17850748 0.2540908 0.30799976 0.21198788 0.3251977 0.0750433 -0.16423972 -0.06253369 0.08159199 -0.074178964 0.23062353 0.17949279 0.2769306 0.2875741 0.14631198 0.033451103 0.3434911 0.66410214 0.16484164 -0.027701361 0.05560822 -0.071454465 -0.005309297 0.21454561 0.36393657 -0.027438981 -0.16339326 -0.30910313 0.14777952 -0.04330322 0.024226496 -0.23815335 0.008297057 -0.5012167 -0.46701154 0.04149932 0.06513431 -0.07498163 0.3290889 0.0733183 0.1902756 -0.11161769 0.01033211 0.12108529 0.46515983 0.080510125 0.21536325 0.10385296 -0.074593976 0.21121351 -0.077832624 -0.35180873 0.10349968 0.6173807 -0.2848086 -0.21519603 0.14882408 0.43123466 -0.06397905 -0.08015604 0.41299838 -0.16084976 -0.48628095 -0.048404597 0.13521942 -0.25978485 -0.16538316 0.3083194 0.10710832 -0.2291556 -0.2258413 -0.010075946 0.027369171
1434 -0.11445797 -0.08521116 -0.47732267 -0.11488951 0.012402703 0.17428093 -0.1881831 -0.08315102 0.0022041781 0.13103244 -0.02595055 -0.19322492 -0.06484674 -0.085050255 -0.3660802 -0.30458495 -0.0918407 0.20802528 0.36484918 0.012233209 0.31457743 0.14888662 -0.10998469 -0.12005922 -0.1575247 0.47670186 -0.11545455 0.18109284 0.008520197 0.06268446 -0.25195086 -0.06859567 -0.06665131 0.40142542 0.068306275 -0.11181758 0.3316882 -0.2707328 -0.2135531 -0.07483696 0.14548655 0.31629515 -0.00852103 -0.027165733 -0.15385635 -0.068037115 -0.04426715 0.284295 0.004115107 0.16192104 -0.037968334 0.13405806 -0.22300598 -0.21536532 -0.12457458 0.07463275 0.20743893 0.30370054 0.061992984 0.3684849 -0.01497532 -0.14379354 -0.17816103 0.19126414 -0.16827956 0.38947102 0.19345763 0.26603606 0.47489238 -0.03673298 0.052615426 0.3940532 0.47669592 0.1733461 -0.06859329 0.051376797 -0.146709 0.21901333 0.28961876 -0.007947371 -0.13512745 0.062209476 -0.37919778 0.16982959 -0.0604975 -0.22234073 -0.06474401 0.17063725 -0.47450963 -0.3865418 0.24435125 0.005777052 -0.25681058 0.18950234 0.18279184 0.14479472 -0.40739352 0.15614738 -0.063397005 0.25204548 0.012719869 0.11900588 0.27860177 -0.083125286 0.039163012 -0.16686933 -0.48098284 0.27601716 0.4473613 -0.16760379 -0.09051978 0.007248508 0.40491635 -0.11036049 -0.047847133 0.42415395 -0.034647305 -0.30397972 -0.2369 0.16026868 -0.16525707 0.094701685 0.12077965 -0.023925807 -0.16153537 -0.014419092 0.071383 0.09219161
1417 -0.0034069207 -0.21430783 -0.3082792 -0.12750551 -0.08841185 0.1224805 -0.23560512 -0.15865514 0.025087377 0.05757224 0.06093027 0.0043528057 -0.14572078 0.012796292 -0.44086525 -0.2458206 0.00884234 0.47280228 0.18965349 -0.12443421 0.25163996 0.18919078 -0.3611689 -0.0910232 0.08898791 0.15210465 -0.12509818 0.20023726 0.041895784 -0.0010607967 -0.2796284 0.008260033 -0.004399551 0.41111806 -0.12791923 -0.08953127 0.375831 -0.17115308 -0.1022067 0.055292327 -0.09299584 0.4437891 -0.12954664 0.0543253 -0.14432098 0.1372326 0.008828824 0.23655428 0.05891694 0.18960163 -0.17400871 0.19300584 -0.027111048 -0.13054848 -0.29983565 -0.009261124 0.13532591 0.38144872 0.30766404 0.29963925 0.04788618 -0.1025933 -0.10410205 0.18996635 0.037455395 0.41748333 0.09773111 0.24679492 0.26020718 0.07689989 0.07666014 0.46465626 0.5790304 -0.026162393 -0.01843818 0.031745527 -0.14197157 -0.034812823 0.37546 0.20649002 -0.2328627 -0.18568039 -0.5150515 0.19504084 -0.0738019 -0.051351875 -0.2674676 0.05873745 -0.46725857 -0.36543608 0.14925928 -0.033464964 -0.3931822 0.17156476 0.12802514 0.1723758 -0.22008537 0.23731239 0.08842655 0.3828395 0.1772248 0.21211481 0.040653966 0.03154652 0.12990491 -0.23349117 -0.44092685 0.0093869595 0.39854032 -0.20849746 -0.1164593 -0.07309299 0.4682403 -0.08206369 0.052583337 0.4788496 -0.20751378 -0.48093846 0.011924169 0.19712041 -0.35091355 -0.2214181 0.2203555 0.15318602 -0.25221977 -0.0771369 0.0031189173 -0.035973538
26 -0.0049946853 0.19422051 -0.094122216 -0.13438293 0.07139077 -0.11808899 -0.17564034 0.28983352 -0.10446938 0.18090637 -0.28736168 0.18547834 0.17175527 -0.2911131 -0.04719853 -0.3459853 0.055422604 0.07684761 0.18131134 -0.18183762 0.17276846 0.011498657 -0.05469623 -0.32709324 -0.09201962 0.38963762 -0.09320644 0.11624823 0.074579574 -0.12789783 -0.39412558 -0.23191571 -0.15188044 0.13932256 -0.10905966 -0.20452324 0.043047603 -0.44096777 0.028351353 -0.11589846 -0.218092 0.30825973 -0.36820233 -0.3999155 -0.052149665 0.109041885 0.1752409 0.23473838 0.25331524 0.3435199 0.16091144 0.059529513 0.07696959 -0.4708943 -0.08599348 -0.14155284 0.24077982 0.2531981 0.28647166 0.14178094 -0.17184557 -0.04974308 -0.06630508 -0.2746627 0.104443565 0.2841914 0.35777387 0.18529107 0.2870022 -0.2537044 0.35633478 0.23339601 0.2456129 -0.106782496 -0.15530255 -0.048356246 -0.04847196 0.19182606 0.19697323 0.30282187 -0.28981546 0.13190718 -0.29695302 0.39980695 0.25428984 -0.070136346 -0.0723827 -0.16960213 -0.030025473 -0.08452643 0.020507678 -0.14696713 -0.2611066 -0.118006565 -0.37147668 0.13778713 0.02877244 -0.0916326 0.14099166 0.24212675 0.14491187 -0.035962828 0.19504943 0.45426217 0.26330635 -0.5993793 -0.17807734 -0.0053014765 -0.0336296 0.1756466 -0.025313087 -0.12271238 0.36831003 -0.046180997 0.33490703 0.21911623 -0.10879651 -0.5281911 0.10107526 0.013586333 -0.12809287 0.09419408 0.06854346 0.09123108 -0.5845652 0.39284247 -0.3191603 -0.17171474
1616 0.069756486 0.30904904 -0.358251 -0.12925702 0.20110029 0.45751548 0.53552026 -0.4891634 0.27725264 0.21391965 0.21727456 -0.23947921 0.41357073 0.1646057 0.08556753 0.3804151 0.4280374 -0.34045532 0.21690114 -0.25706503 0.45144704 -0.31611866 0.32066128 -0.4004332 0.25832734 -0.27022547 0.04944056 -0.15463117 -0.44478694 -0.12034836 -0.3750357 -0.14841844 0.15273333 0.054168083 -0.24116896 0.23370485 -0.28051597 -0.7801661 0.13963866 0.07685964 0.048352476 0.6791509 0.23288317 0.15124962 0.4030453 -0.32346764 -0.35509995 0.16802801 0.23301385 0.4325822 0.0083326 -0.10379753 0.45963275 -0.14630227 0.11991066 0.25495264 -0.038296342 0.40247172 0.07938324 0.12259442 -0.51261586 0.458169 0.44104752 -0.05341424 -0.18191992 0.42125112 -0.22059062 -0.94000554 0.38014823 0.03372393 -0.14103864 0.30681145 0.02310798 -0.16710399 -0.006485336 -0.3362482 0.885492 -0.28741264 0.18564746 -0.15837394 0.18746462 -0.27403688 -0.5385317 0.098937154 -0.28827295 -0.29421386 -0.10407244 0.059581604 -0.09587115 0.11806114 0.37848467 -0.30970183 0.27120504 0.31030682 -0.52225155 0.4298481 -0.23089415 -0.2800113 -0.22583093 0.055031657 0.15328492 0.38294592 0.13317187 -0.20281243 -0.12535422 0.26409858 0.10535317 0.041580893 0.3705819 0.31485775 -0.098691575 -0.047800608 -0.08866807 -0.38355282 -0.06143981 -0.39218768 0.07587402 -0.1171852 -0.17848101 0.0011313432 -0.6141812 -0.19224726 0.30434573 -0.13298947 0.15592518 -0.1467499 -0.24698295 0.20696232
1640 -0.11806311 0.29498163 -0.30170476 -0.10897035 -0.015971921 0.36770025 0.5155661 -0.4955283 0.2077746 0.04144978 0.07688073 -0.19640467 0.06458394 0.23657452 0.060187615 0.029186428 0.4680787 -0.43989125 0.004938728 -0.4238282 0.64369494 -0.56793964 0.033728596 -0.32630092 0.4154217 -0.2927815 0.00024473644 -0.1767884 -0.21977858 -0.08082163 -0.33990434 -0.17804417 0.17033222 0.20356247 -0.3710493 0.034575082 -0.23004296 -0.6189334 0.09002667 0.13793194 0.10841339 0.5051979 0.42587465 0.004204806 0.38951123 -0.392885 -0.14964461 0.17886579 0.041149788 0.12281162 -0.029044325 -0.14388408 0.4190503 0.049307976 -0.13248308 0.20441146 -0.009013747 0.037929032 0.008833521 -0.029129636 -0.39446554 0.443279 0.24127813 0.104899175 0.008374021 0.39192352 -0.0077159423 -0.9540938 0.44902855 0.081626564 -0.43526813 0.28424928 0.04006645 -0.21046202 -0.22046545 -0.4796024 0.8146027 -0.21680711 0.074452296 -0.05161508 0.3966319 -0.33057663 -0.35087553 0.23806536 -0.29709798 -0.34178865 -0.14363241 0.07283253 -0.018502766 -0.0463695 0.34055093 -0.09349484 0.20058832 0.38381484 -0.4761483 0.47359312 -0.13979875 -0.36699644 -0.39286965 -0.03788619 0.14885513 0.37806433 0.13578303 -0.047463387 -0.0017929067 0.28351715 -0.0013699634 0.09487906 0.3027662 0.27107403 -0.28592902 -0.03189213 0.027151048 -0.37982455 -0.09838455 -0.49078754 0.049370646 -0.26836413 -0.17275345 -0.08920887 -0.27212617 -0.26157695 0.28285682 -0.42639434 0.26681572 -0.06928694 -0.2890931 0.11002214
115 0.062032852 -0.087237366 0.35287616 -0.5316738 0.59979045 -0.3967399 -0.058094423 -0.09814345 -0.22074601 -0.4324248 -0.03816666 -0.5399114 0.10838711 0.20469484 -0.12299623 0.17258094 0.06349782 0.007230942 -0.020565499 -0.007768384 0.20714177 -0.0904469 -0.38944462 -0.35458785 -0.07228899 -0.11791111 0.6311291 -0.17630188 0.11940899 0.29648152 0.45263392 -0.35521117 -0.1771282 0.051336266 0.542909 -0.51628447 -0.83778954 -0.31490082 0.25983012 -0.00970162 -0.20446323 -0.25910977 0.11549581 -0.30871713 -0.0729255 0.17073917 -0.26406562 -0.2482962 0.76026434 0.13341236 -0.26967016 0.15690765 0.40824565 -0.6071602 -0.45574528 1.0263628 -0.24402441 -0.26443985 0.20991328 -0.11247307 0.39246905 -0.07224975 -0.35738862 -0.50540674 0.57351923 0.21909294 0.08899269 -0.2166379 -0.0075507015 -0.23308633 0.19198136 0.718052 0.61188745 -0.21573111 0.2535546 -0.5617727 -0.52826375 -0.10414787 -0.603147 0.2762545 -0.55156267 -0.33333173 0.15173711 0.5165064 -0.034301 -0.44791514 -0.33760867 0.16843173 0.03495111 -0.11769218 -0.118663855 -0.21281853 -0.047581777 -0.54760426 -0.638466 0.12444848 0.01164338 -0.22706486 0.12579575 -0.04261724 0.04801698 -0.14704232 0.099657014 -0.2231183 -0.27904814 -0.44140857 0.11806355 0.09492595 -0.35745034 -0.24848545 0.07384012 -0.5429165 0.32629502 -0.1726677 -0.45659682 0.13750036 -0.27112544 -0.29538372 -0.32530904 0.043648954 -0.4367165 -0.5742023 0.25290495 0.116623126 -0.24011548 -0.335215 0.35382047 0.2374138
86 -0.033608094 -0.3654389 0.50525635 -0.8423072 0.6097227 -0.45592025 0.121494725 0.07081151 -0.2189254 -0.38454422 -0.0993042 -0.80650353 0.2744098 0.06824237 -0.1715494 -0.0371462 0.03358085 -0.07640656 0.014434138 -0.0881445 0.50225216 0.0062816003 -0.51834226 -0.42778108 -0.0070448522 -0.15743665 0.69652647 -0.25078797 0.14467321 0.13793044 0.47162887 -0.2912531 -0.13620225 0.32045963 0.30560142 -0.5470695 -1.0820386 -0.5994948 0.41249296 0.27201268 -0.47212702 -0.324492 0.36868417 -0.34336814 -0.17351924 0.108298585 -0.12728791 -0.09558647 0.7799038 0.123163976 -0.4227098 0.0653788 0.47548842 -0.7730073 -0.7736286 1.1465989 -0.31856757 0.05804247 0.314845 -0.23438212 0.36321697 -0.28052053 -0.47340104 -0.42864355 0.8512256 0.47100312 0.07747717 -0.25840643 -0.28193688 -0.33194646 0.34214413 0.74592113 0.47466686 -0.4531372 0.4800576 -0.6695471 -0.5559195 -0.25359595 -0.53821695 0.35683143 -0.56225324 -0.56856614 0.25431994 0.46762475 -0.12966111 -0.6143884 -0.33711416 0.025653027 -0.08212552 -0.2764911 -0.041119073 -0.23509255 0.40973464 -0.97570324 -0.4836899 0.15860084 0.06819115 -0.029945116 0.23814656 -0.016329966 0.04968828 -0.2841831 0.19336769 -0.15531038 -0.29731643 -0.68121356 0.12679096 0.10819884 -0.58787835 -0.29412118 -0.08591183 -0.6487254 0.4869783 -0.2500523 -0.9882062 0.007817009 -0.4866631 -0.32127947 -0.52265173 -0.15284091 -0.40388903 -0.8053954 0.32059163 0.26146176 -0.08665289 -0.23674344 0.36456266 0.49553907
243 -0.27684888 0.2217463 -0.2781189 0.007600639 0.1240099 -0.039764486 -0.15537596 -0.14986797 0.14385346 0.1657511 0.18595621 0.059404366 0.2476023 -0.20580955 0.030308258 -0.44726574 0.31532583 0.15715523 0.22479452 0.013440143 0.09891101 0.017754624 -0.1760762 -0.11275918 0.018413847 0.25494072 -0.13068922 -0.24961776 -0.072973646 0.25786847 -0.101033665 0.17392726 -0.2625658 0.26859963 0.16904835 0.26681623 -0.08937755 -0.15360351 -0.019235453 -0.7301958 0.376222 0.37771267 -0.34398627 -0.24431673 0.20066054 -0.11716449 0.36360496 0.045417763 0.22069858 0.32557258 0.07832778 0.29468602 -0.09636264 -0.37654328 0.08920394 0.05914366 0.06505835 0.14291734 -0.24945651 0.4184817 -0.040742736 0.07096724 0.028073326 0.35649538 -0.15484384 0.3768187 0.34965795 -0.06141639 0.0701285 -0.06992686 0.20369346 0.35801736 0.09379051 0.2771199 -0.30620378 -0.10418353 -0.21138003 0.07723321 0.08197704 0.28428385 -0.21085222 -0.18922135 -0.3471467 -0.07647849 0.060687106 -0.3858383 -0.1406688 0.29480916 -0.7781015 0.07822343 -0.2961197 -0.021173103 -0.28058314 0.18076217 -0.09069629 0.27278614 -0.22622536 -0.08997368 0.038572513 0.19816671 -0.18211426 -0.17102848 0.36276513 0.376698 -0.17031543 -0.24819992 -0.4443889 0.3209723 -0.2135458 0.09201241 -0.0878186 -0.17772932 0.19627178 -0.18297051 0.29718807 0.5296837 -0.3072329 -0.057456512 0.19567955 -0.16909078 0.15706293 0.023974204 0.12870179 -0.0172642 -0.12993401 -0.20470193 -0.15262713 0.089431725
246 -0.19509578 0.17019184 -0.2929875 0.040754218 0.15703747 0.005826491 -0.11973601 -0.22069007 0.15421985 0.23915604 0.18519884 0.061835643 0.27827412 -0.0010544455 0.028514814 -0.42686704 0.37478533 0.22239386 0.22145821 -0.15950744 0.15574442 0.11025418 -0.14579825 -0.03764187 -0.004097436 0.21680331 -0.11775914 -0.16307507 -0.11975026 0.21646626 -0.21816824 0.19318482 -0.22454478 0.31807458 0.18454765 -0.0049378937 -0.008743982 -0.081699505 0.0837604 -0.6583981 0.22665001 0.39573035 -0.27775046 -0.21944806 0.24259311 -0.07036157 0.4167509 0.08178799 -0.027096102 0.4207509 -0.020882772 0.40178597 -0.13555232 -0.4286173 0.058052424 0.15893015 0.05788674 0.20830156 -0.1856769 0.4424138 -0.07117074 0.122676514 -0.058742534 0.29778573 -0.019313665 0.22716807 0.3325955 -0.04588534 0.14333722 -0.16080768 0.16084048 0.39131674 0.15512869 0.2636015 -0.22238448 -0.13415776 -0.19661653 0.104894914 0.059591286 0.26765686 -0.32276163 -0.10975042 -0.3004424 -0.12850279 0.021927753 -0.2977292 -0.25522783 0.33448637 -0.89367574 0.11457764 -0.33378288 -0.061940044 -0.23114093 0.049241748 -0.059474017 0.17294566 -0.23883864 0.056481566 -0.019794857 0.13601008 -0.13671918 -0.11356578 0.28186116 0.34849948 -0.13795549 -0.3339233 -0.44475436 0.39800495 -0.10463559 0.06000468 -0.108759634 -0.16625768 0.20424117 -0.1620448 0.13127358 0.5266301 -0.18682304 -0.2097428 0.06040353 -0.25447014 0.146531 0.07764106 0.08587515 -0.0644358 -0.054151647 -0.14540969 -0.04871411 0.1488966
1840 0.27915016 -0.056340873 0.052867055 -0.12787218 0.17317863 -0.096562445 0.0729279 0.3996617 -0.14783698 0.21779434 -0.084607266 -0.15858983 -0.40117154 -0.39824438 -0.083716236 0.13748923 -0.13149397 -0.22845048 0.2605323 -0.026916984 0.13942541 -0.041447166 0.29358065 -0.6071332 0.025720999 0.0030353803 0.25842717 -0.22681086 -0.22891217 0.75132114 -0.07021564 -0.22686034 -0.3620645 -0.076944396 -0.1272597 -0.08915936 0.18046615 -0.15559506 -0.23115882 0.14783518 0.54062897 0.34476212 -0.20029639 -0.2977602 -0.040405646 0.36877367 -0.27825177 0.28273088 -0.06123904 -0.48596007 -0.46971163 0.14010978 0.18305962 -0.028471515 0.4637203 -0.16848968 0.13657434 0.08948055 -0.12609991 -0.11731595 -0.15417089 0.57025 -0.068339705 0.25487846 -0.0460074 -0.12582685 0.07374181 0.019934172 0.10787749 -0.033731177 0.12919572 0.014678702 0.049553595 0.07013922 -0.27389953 0.29731622 0.14097895 -0.1530196 0.051092062 -0.4402904 -0.4016692 -0.06967415 0.012451789 -0.01602887 -0.096082084 -0.032035623 0.010223335 -0.018139044 -0.2729858 0.27346897 -0.04375955 -0.23543695 0.32339016 -0.14847028 -0.39615944 0.41931194 -0.12384957 0.044988517 0.12708959 -0.18680538 0.085560754 0.27807927 0.237111 0.6152764 0.26951256 0.40230405 -0.26569748 -0.030352447 -0.09271999 -0.18506753 0.18349898 0.533329 0.20718108 0.2151154 -0.3620111 0.12525861 -0.037113316 0.26594567 -0.31920385 -0.3265917 -0.30248907 -0.3033539 0.15705502 -0.071529366 -0.25094643 -0.18797036 -0.06853398 0.10375474
1446 -0.0041083717 -0.17507118 -0.4210682 -0.18434697 -0.043205325 0.13880207 -0.22911303 -0.115946464 0.13499497 0.02428296 0.034284603 0.01365666 -0.1418843 -0.03092103 -0.34202302 -0.17739773 0.008192883 0.42578286 0.38254192 -0.1358133 0.20176612 0.17046362 -0.27993143 -0.027254773 0.037218332 0.42140946 0.041269593 0.14364247 -0.035550326 0.051668447 -0.29927766 -0.018997714 0.045024212 0.359288 0.010034376 0.008436092 0.43130732 -0.3574446 -0.10348356 -0.12269576 0.04554573 0.44387817 -0.14069653 0.05686746 -0.20510736 0.12368225 0.119630374 0.33386552 -0.059153587 0.28633663 0.008813351 0.2653795 -0.07981891 -0.2512439 -0.105336666 0.06197738 0.13453385 0.29295826 0.09885897 0.31796804 0.21581574 -0.18330714 -0.060262624 0.22371516 -0.014328061 0.2562131 0.19549167 0.2025023 0.17124856 0.030883674 0.10921543 0.4645145 0.4932391 0.19654101 -0.012749648 0.058041647 -0.11351869 -0.00030139304 0.21758647 0.045637053 -0.31226662 -0.106083915 -0.43972194 0.14928226 0.0010621473 -0.016670575 -0.19371425 0.11998339 -0.5061228 -0.25278735 0.1296122 -0.06806673 -0.21221001 0.21613649 0.08889836 0.082918935 -0.33211127 0.10311407 0.008538567 0.37016007 0.16395478 0.22422427 0.103318185 0.07995964 0.045904197 -0.24333104 -0.4050818 0.25620705 0.4038741 -0.11895472 -0.13319212 -0.0045849453 0.53693646 -0.17051342 -0.04534212 0.3218278 -0.021265868 -0.29209465 -0.11229553 0.23487784 -0.24439692 -0.10739571 0.3376094 0.09112133 -0.12020621 -0.06681244 0.0140510015 0.14166406
1465 -0.079500966 -0.2551528 -0.31404004 -0.1280025 0.023927657 0.15246478 -0.24548866 -0.22139978 0.16763362 0.1015707 0.06369375 0.011904191 -0.21477313 0.15998009 -0.16099712 -0.09701224 0.18123764 0.39499426 0.1620385 -0.21467587 0.3064932 0.08838035 -0.14574103 0.01852528 0.14711437 0.3296692 -0.17029886 0.103714086 -0.1484275 0.052961044 -0.30110294 -0.09560029 0.015276885 0.26933002 -0.03880471 -0.0969701 0.3447625 -0.2313629 -0.05645372 -0.08355593 -0.09373811 0.4112945 -0.15661885 -0.05231085 -0.24021107 0.017942345 0.07661574 0.006249475 0.015502447 0.1652898 -0.1397526 0.16392459 -0.12845497 -0.22416861 0.06452148 0.046552554 0.03843524 0.33158916 0.17646979 0.39751005 -0.026757699 -0.118134715 -0.08613733 0.27614674 -0.1914694 0.33391654 0.19401366 0.1113882 0.21677904 0.14543056 0.03768201 0.28379357 0.43693736 0.10522257 -0.104531735 -0.024135645 -0.16959181 -0.04378349 0.32694438 0.036971625 -0.24432206 -0.13707876 -0.36363816 0.13499944 -0.03413654 0.042516354 -0.29184902 0.016895246 -0.40525034 -0.21978112 0.1507372 -0.033693235 -0.22242586 0.21743223 0.110200696 0.007857267 -0.18213603 0.014123945 0.0323774 0.31987005 0.05326581 0.25998393 0.1569354 0.1991116 0.09024988 -0.16613233 -0.40847722 0.24642482 0.4011431 -0.10706766 -0.07234535 -0.0786341 0.258353 -0.09983657 -0.03290226 0.46698272 -0.12365405 -0.39537102 -0.16200094 0.32064584 -0.20105328 0.030727223 0.21054052 -0.075991265 -0.11983388 -0.06489311 0.06651436 0.15916158
581 0.056946848 -0.0026354145 -0.060866535 -0.03004832 0.06515474 0.34285694 -0.012563706 -0.03192892 0.08315951 0.0034571835 0.18588874 0.3200655 -0.29638192 -0.3321147 -0.008449132 0.068467796 -0.0802597 0.5102664 0.45517188 -0.052445784 -0.08019555 0.0146750435 0.006058141 0.16396807 -0.052487332 0.48249435 -0.09344933 0.2883538 -0.2664072 -0.15170538 -0.34606433 -0.8379811 -0.20091355 0.058188763 0.30920446 -0.54067373 0.14381886 -0.14466922 -0.0044789123 0.19320753 0.4627424 0.15184489 -0.17962655 -0.009332176 0.43641174 0.5596061 -0.19901599 -0.25719568 0.47279966 0.22568259 0.31360093 -0.28539258 -0.2050599 -0.3222392 0.08923778 0.28891224 0.044545762 -0.26327857 0.28861615 0.17680892 -0.10955685 0.41969895 -0.4539869 0.34626225 0.254118 0.41396043 -0.10783701 0.10378761 0.26774457 0.067408614 -0.13752982 0.18678015 -0.29143706 0.22661307 0.028851917 0.25315207 0.090988465 0.35614276 -0.40148568 0.19530155 0.07725488 -0.31382036 -0.1481347 -0.078212515 -0.0169784 0.31430522 -0.29785672 -0.3256493 -0.34815165 -0.017426873 -0.24626173 0.62662464 0.19088069 -0.02604984 0.6261764 0.61518943 -0.24375075 -0.1919483 -0.08150015 0.045190502 0.20007613 -0.13284336 0.0033832702 0.12502943 -0.12799978 0.12571007 -0.91428834 0.41002038 -0.23057652 -0.08755898 -0.16360226 -0.005369359 -0.32472575 -0.76026905 -0.21965688 -0.43278122 0.037766926 -0.26752692 -0.26641276 0.0727148 -0.0698718 -0.2621776 0.031457964 -0.0713236 0.4436199 0.09559744 -0.3409783 -0.11201593
590 -0.09382598 0.04460471 0.084971376 0.21346036 -0.20611165 0.4262937 0.20875265 0.030012384 0.3636451 -0.12152351 0.0033536586 0.32067317 -0.118774205 -0.41628367 -0.29431257 0.018749397 0.11783571 0.6222456 0.21938615 0.024769481 -0.0049165552 -0.28853074 -0.16620237 0.19065347 -0.046283342 0.56834257 -0.09348994 0.07950782 -0.071578614 -0.20983401 -0.07326555 -0.7965015 -0.21851428 0.124774314 0.23192172 -0.40733373 0.31352925 -0.16982071 -0.0060005104 0.09325264 0.33155268 -0.09098386 0.22918509 -0.006215204 0.29609054 0.3654303 -0.19489019 -0.37097934 0.6675844 0.2095222 0.3733339 -0.38833275 -0.19013134 -0.34919155 0.15099894 0.01938043 -0.2553166 -0.124222375 0.37650612 0.1761621 -0.14204995 0.39107162 -0.34755546 0.1327779 0.35207528 0.31212622 0.026025064 -0.17840673 0.37735507 -0.03471534 0.007837353 -0.07330361 -0.06593559 0.056115914 -0.09079821 0.12986316 -0.2277025 0.24048047 -0.43308437 0.17233992 -0.1924425 -0.52621716 0.10754853 -0.07108731 -0.083997935 0.17366159 -0.27498192 -0.575531 -0.13474922 -0.025749095 -0.16783121 0.3930392 0.14073935 0.07291317 0.6778258 0.6154535 -0.25875586 -0.23956008 0.0092915045 -0.017393671 0.2461631 -0.08078488 0.114269905 0.15578745 -0.09116584 0.049839452 -0.85570955 0.14029205 -0.20335421 -0.049452435 0.027986694 0.12995942 -0.18441914 -0.60680175 -0.24540995 -0.58263 -0.07249867 -0.2907751 -0.17828454 0.08881906 0.029959265 -0.18913999 0.14121482 -0.06112736 0.33211565 0.025228323 -0.20605516 -0.005349366
2266 -0.5412704 -0.33295748 0.070132636 0.11945303 -0.511606 0.31542677 0.60520226 0.61891776 -0.023802813 0.5694643 0.3309352 -0.16658512 -0.183981 0.27851757 -0.27440006 -0.35943535 0.5369418 0.06564552 -0.4709872 -0.13731486 0.15754402 -0.085351646 0.14259851 0.0006141157 -0.12283847 -0.04467315 0.5776335 -0.17865178 0.058203653 -0.06519452 0.38971394 -0.24893028 0.27675283 0.12117406 0.10004179 -0.7179465 0.30720073 0.14878444 0.27217248 0.221892 -0.084376976 -0.33783892 -0.334446 -0.20815961 0.84784853 0.08395485 -0.5818023 0.09980317 0.17320156 -0.24159794 0.10597085 0.02716344 -0.14387421 -0.32359415 0.0013238766 0.1454423 0.112719305 0.029783932 -0.031180274 -0.07994074 0.25521418 -0.38490084 0.16696678 0.0780426 0.2634358 -0.096642755 0.069970645 -0.10721908 -0.09057851 0.25240493 0.65115607 0.39293152 0.16206527 -0.3889592 0.003228665 0.30420223 0.39888975 0.06743569 -0.05014161 0.25180727 -0.22728193 -0.3088762 -0.5105136 -0.549566 0.28455493 0.09433936 0.31856012 -0.22813946 0.12904075 0.1614494 -0.104211286 -0.14530848 0.11571507 0.21974887 -0.18185984 0.29272735 -0.2818773 0.06756549 -0.16807075 0.41432032 0.4587702 -0.2184674 0.3988785 0.45535251 -0.2895844 0.44694147 -0.18255955 0.040600475 0.16591007 -0.18644808 -0.001176742 0.035841692 -0.09551939 -0.059899695 -0.23869215 0.16094406 0.06365529 0.34234992 -0.019161517 0.32985523 -0.25916895 0.09387343 -0.14570138 -0.1076243 -0.2556318 -0.327142 -0.14358649 0.25205314
2223 -0.7158075 -0.17907012 -0.02250463 -0.026086867 -0.56648034 0.00059582375 0.7182701 0.34370917 0.0680973 0.6656883 0.3679519 -0.16720127 -0.19639178 0.3508236 -0.30161142 -0.44501626 0.694018 -0.035927955 -0.5296146 -0.1888592 0.006197785 -0.12938237 0.1823527 -0.20148815 -0.058829106 0.13928199 0.5417112 -0.071142584 0.18309723 -0.1836085 0.2025973 -0.23606135 0.15131098 0.04664291 0.074488334 -0.7561424 0.11880367 -0.034965433 0.30073836 0.2178023 -0.0969503 -0.32988155 -0.27965352 -0.21995303 0.666934 -0.14598389 -0.74675065 0.07148981 0.14730698 -0.3018141 -0.027951872 -0.0682334 -0.022197878 -0.08852265 0.043118455 0.18378453 -0.060805928 -0.014384863 -0.006740066 -0.05962966 -0.012699539 -0.28364655 -0.08327138 -0.1414259 0.38234884 0.07906275 0.008638746 -0.027790092 -0.09898131 0.3414188 0.7016895 0.51302975 0.10198906 -0.28351077 -0.013113213 0.24960952 0.3657117 0.12359342 0.09909277 0.29401323 -0.06326184 -0.32020342 -0.3093667 -0.4561629 0.22910279 -0.16718994 0.23800637 -0.21948555 -0.1536285 0.18610826 -0.097624585 -0.075959146 0.072175555 0.191685 -0.13570444 0.15641291 -0.52496815 0.22352426 -0.3446882 0.39477044 0.30298936 -0.37463292 0.5467256 0.5221163 -0.38010764 0.6677847 -0.17209361 0.02821129 0.12401098 -0.18473738 0.02939026 0.24011421 -0.1112361 -0.12765786 -0.29222056 0.0074644443 0.10035479 0.29593614 0.0028528038 0.270256 -0.28757098 0.27382472 -0.17306611 -0.017958818 -0.30721438 -0.28794923 -0.042496465 0.051350508
1298 0.19598347 0.18651938 -0.34984347 -0.17238148 -0.2726228 0.1799894 -0.058166258 -0.33189258 0.116797276 0.7405076 0.24825221 0.141351 0.04553834 0.1064005 0.03073082 0.26289186 -0.23727728 0.16909319 0.020707484 -0.29816145 0.09985605 0.080757886 0.4750201 0.14346547 0.527184 -0.07165391 -0.09664265 -0.25567508 -0.06987625 0.11678349 0.12247548 -0.5577635 0.06836781 -0.14897646 0.0946182 -0.29442167 -0.030945895 -0.62856203 -0.28695446 -0.039227262 -0.059594337 -0.08141909 0.25592178 -0.18465461 -0.014214617 0.5789644 -0.21757956 0.15971644 -0.1502325 -0.17173158 -0.4958977 0.04854136 0.096130535 -0.37006098 0.32325685 -0.30217323 -0.004917385 -0.102456145 0.11418236 -0.41706908 -0.018868519 -0.18358785 0.43343827 -0.17123982 0.5416664 0.17666383 0.30605534 0.41989097 -0.22411753 0.27029833 -0.19572389 0.12803167 0.091306284 0.15965535 -0.063685454 -0.022392211 -0.45624608 -0.5267253 -0.075134866 -0.0028690936 0.5970511 0.025382807 0.059360668 0.34217766 -0.22472677 -0.2996568 0.20289391 -0.127335 0.002293669 -0.33123586 -0.17541067 -0.16482833 -0.032183744 -0.23765731 -0.10506363 0.22893922 0.14026344 0.2484341 -0.3264743 -0.07491792 0.05444894 -0.32972983 0.59723717 0.0542031 -0.0027383594 -0.09811874 0.0385493 0.27743733 -0.3061519 0.2936569 0.48282638 0.14121732 0.06519126 -0.3523656 0.22708212 0.19182554 -0.22307217 -0.23833258 -0.18780583 -0.22049579 -0.25607628 -0.1380972 0.06601607 -0.08197734 -0.11326526 -0.3571954 -0.06171295 -0.28892198
57 0.14718613 -0.0697233 -0.49015993 -0.34990126 -0.07368625 -0.112370774 0.052261215 -0.29475096 -0.095636375 0.6633967 0.22031556 0.05084597 -0.22451517 -0.30532154 -0.13871036 0.4994641 -0.18119662 -0.13846402 0.124963894 -0.44646266 0.27571806 0.08199222 0.51243705 -0.13281704 0.32309762 -0.28221944 -0.21662927 -0.13404952 0.09277311 0.2974929 -0.06426556 -0.7578819 0.00089236704 0.0815374 -0.103401914 -0.30505624 -0.19793192 -0.1679301 -0.06115874 0.066857025 0.10044899 -0.51895326 0.1508299 -0.078114845 0.025098199 0.2884556 -0.12910104 -0.046748236 0.22434397 -0.4259881 -0.12610742 -0.17487381 -0.1676797 -0.51717085 0.19115822 -0.14368603 -0.3788535 -0.19970252 0.112629354 -0.06107162 0.3111416 -0.034480866 0.4882495 -0.25576273 -0.013207802 -0.1057506 0.49579006 0.15165205 -0.070769794 0.19668178 -0.11240893 0.14395608 0.17538206 -0.11845948 -0.24618809 -0.21180668 -0.09995246 -0.38253984 0.4078522 0.018344026 0.28831032 -0.16502777 0.26948348 0.3582791 -0.09989606 -0.3153038 0.003707815 -0.047407866 -0.09773339 -0.16199245 -0.096852735 -0.19095348 -0.1031062 0.13701226 0.015332192 0.058249578 -0.05332647 0.18422477 -0.24835123 0.033262823 -0.2821259 -0.2960399 0.5551057 0.1182011 0.035807334 0.70163167 -0.21829249 0.23148786 -0.20773412 0.3218402 0.11079191 -0.037232883 -0.05655758 0.17742923 -0.10575292 0.04149554 -0.113977134 -0.09445481 -0.06138166 -0.18997264 0.058189347 0.10058526 0.110938124 0.12254857 0.016950967 -0.14813672 -0.15804645 0.052499507
1299 0.061683226 0.37345493 0.3327101 0.23595192 0.1703413 -0.083501235 0.41713932 -0.22066629 0.03507472 0.4230306 -0.13350572 -0.054387737 -0.19666836 -0.39700904 -0.14946501 -0.10742328 0.028199252 0.15484616 -0.1405757 -0.42495793 0.20026088 -0.39652783 -0.10684135 -0.003959127 0.12868783 0.120138206 -0.21765502 -0.010975055 -0.28966773 -0.23556672 -0.09970447 0.0547184 -0.24606216 0.75591385 0.21494073 -0.19666593 -0.14066835 0.113367274 -0.34979442 0.49497727 -0.22272557 0.06517325 -0.74692243 -0.09365604 -0.018906651 0.22832942 -0.6951207 -0.07405414 -0.15369491 0.29916754 0.08844631 0.17911214 0.35782462 -0.08330201 0.16526887 0.07532789 0.5163616 -0.013519985 -0.33196297 -0.23081885 0.08389358 0.24634549 0.41205963 0.097296916 0.08403499 0.15263182 0.33983847 0.193007 -0.19837584 0.21735251 -0.046467822 0.029990407 0.145059 -0.35695803 -0.08601961 0.08704807 0.004397035 0.13346322 -0.28538674 -0.24708416 0.12318791 -0.7746702 0.7091781 -0.5379124 -0.5236956 -0.04477759 -0.03390751 -0.15059045 0.4645234 0.27519462 0.07323019 0.21201636 0.29839206 -0.2443967 -0.17030841 0.057325866 -0.38872197 0.43808192 -0.19490917 0.8228057 0.4263099 0.30197755 0.16072483 0.047740117 -0.12375653 -0.12844352 -0.018326262 0.63968796 -0.14415585 -0.44002476 0.109880865 0.04204869 -0.08876979 -0.5813932 -0.019366916 0.52306813 -0.046487123 -0.10064951 0.0053905006 -0.0942569 0.3411892 0.14022091 0.14242129 -0.2511819 -0.17651737 0.45781243 0.21485691 -0.042246208
1259 -0.023395387 0.28529534 0.036213234 -0.12467964 0.38932076 0.1379966 0.4351105 -0.13126579 0.0045436653 0.25783113 -0.07136305 -0.08097279 -0.25853014 -0.30965686 -0.18700019 0.03232446 0.013385664 0.108884096 -0.07857911 -0.63952446 0.39561713 -0.328682 0.1328709 -0.09766123 0.2539637 -0.0015475248 -0.27293026 -0.08446904 -0.11589554 -0.31412604 -0.1437871 -0.1568672 -0.2804603 0.7302891 0.26369077 -0.09716191 0.17751598 0.09092586 -0.19954397 0.7690679 -0.21510164 -0.27030718 -0.57505196 -0.003143689 -0.2376907 0.29528055 -0.78940696 -0.2732311 -0.33543885 0.45258358 0.5200014 0.1431467 0.34110913 -0.21168986 0.18047448 0.10627553 0.419656 0.079355404 -0.25935856 -0.45143777 0.21466202 0.20680745 0.46023047 0.21672493 0.086923435 0.46511915 0.34565848 -0.13089725 -0.24110678 0.27196246 0.018116474 0.22939312 0.27181134 -0.16827147 -0.28263864 0.1965582 -0.04999873 0.2268978 -0.41175106 -0.29222614 -0.07192704 -0.7935715 0.5636319 -0.24988423 -0.5026781 -0.16078843 -0.23946632 -0.2121031 0.3106701 0.22834392 -0.12965272 0.13081537 0.40978354 -0.17509599 -0.3817217 0.19089572 -0.3848496 0.29877907 0.015328343 0.79555315 0.46454954 0.30047843 -0.024386168 -0.04941448 -0.22407848 0.03218088 0.019705277 0.3554139 -0.47221193 -0.53703994 0.40988785 -0.08077526 -0.22364669 -0.5368257 0.035895575 0.45328856 -0.39219558 -0.0083849635 0.18242948 -0.23084544 0.108547464 0.15324935 0.32405576 -0.3599518 -0.0778465 0.28943288 0.32362443 -0.1261422
708 0.010149977 0.042398226 -0.17724292 -0.052902408 0.050304096 -0.10980888 0.30634663 0.24923512 -0.08044088 -0.049223706 0.1189103 -0.03845575 -0.017419009 0.11619432 -0.032568 0.06558787 0.20807134 -0.2176355 0.100660294 0.16916262 -0.062733985 0.1332994 -0.37800732 -0.008738687 -0.10314775 -0.23229484 0.09181514 0.09099924 0.01681541 -0.05342063 0.15210806 -0.1071774 0.09807911 0.39489827 -0.013698153 -0.21408296 -0.15474127 0.032822203 -0.35746542 0.16120763 0.14240886 0.22263463 0.23022343 -0.020079302 -0.06852074 0.016000573 -0.18412524 0.10798957 0.38335767 0.13031814 -0.28677818 -0.162456 0.053216197 -0.46216542 0.102871284 -0.14808288 -0.26860118 0.1689174 -0.3549697 0.2881211 0.12086703 0.13210863 0.22249493 -0.22368279 0.29381472 0.19923745 -0.13975146 0.27496284 0.11449859 -0.17880327 0.16819473 -0.006256842 0.04871462 -0.12222168 0.068525285 -0.1215363 0.06716446 -0.2477396 0.02688221 0.23442386 -0.18829593 0.0037803615 -0.082224265 -0.22284715 -0.13994966 -0.04802627 -0.08742517 -0.27154008 -0.14433053 0.27400088 -0.12563284 0.012664953 0.13874835 0.066526465 0.08773601 0.09100168 0.25018525 0.2089282 -0.34514076 -0.04719369 -0.0039262203 0.114585474 -0.03706453 -0.088472724 -0.07743988 0.15396306 -0.101301946 0.14838763 0.093711466 -0.09028544 0.037175197 -0.080202155 0.22636622 -0.21881194 -0.055044994 -0.056417868 0.04497591 0.08822345 -0.11109664 -0.28221005 -0.45540366 0.016276814 -0.10874043 -0.14941925 -0.037144028 0.25918746 -0.038210385 0.1753683
814 -0.34138018 0.20075043 -0.30503196 0.19894694 0.4663766 0.18114597 0.17164245 -0.029024841 0.011009558 -0.023389388 0.6483994 -0.4169318 0.1253378 -0.17930748 0.14216228 -0.036596425 0.62771744 -0.031616002 0.36690262 -0.0111448 -0.23839986 -0.048874144 -0.3772896 0.10401795 0.15618502 -0.23115537 -0.06653591 0.15344901 -0.2316771 0.10772144 -0.1261212 -0.1465756 -0.016880801 0.2744299 0.0014491449 -0.41300693 -0.1081763 -0.42235506 0.27416614 0.025124874 0.24821444 0.13170128 0.11627568 -0.15342718 -0.0035669662 0.03372025 -0.4501005 -0.1696543 0.01837748 0.07768934 0.05747888 -0.1746955 0.13358483 -0.5007082 0.031255566 0.34134904 -0.15837868 0.18333888 -0.1464711 0.49336013 -0.07569208 0.4581546 0.09218954 -0.11689103 -0.42932615 0.13089088 -0.08172316 -0.02599675 0.24170494 -0.16962107 -0.3085402 0.45391902 0.13003598 -0.33710298 -0.07523896 -0.001320741 0.29943797 -0.2445653 0.31907654 0.00017387173 0.15747763 -0.2131301 -0.27586102 -0.005528473 -0.28035358 0.092432246 -0.0686638 -0.40926626 0.13101259 0.21728595 0.20763054 -0.10902593 -0.57883924 0.23597868 -0.15389314 0.15279448 0.17455553 0.20528273 0.022120994 -0.038580984 0.035842143 -0.23936705 0.23435213 0.026691763 0.08963781 0.18153076 -0.051297896 0.208528 0.46033773 0.10148924 -0.4670198 -0.040222283 0.6474698 -0.04482343 0.474423 -0.026418887 0.104081094 0.18344912 -0.10464756 -0.3337368 -0.35038367 -0.12916325 0.12046132 -0.10683737 0.1339016 -0.24241419 0.0015180077 0.23712732
1213 0.49387187 0.55315024 0.27621567 -0.32303217 0.20137247 -0.35939053 -0.08706383 0.04627199 0.18181558 0.49804062 -0.3015752 -0.2937787 -0.16149989 -1.2086709 -0.41211805 -0.017371016 0.30837184 0.38885933 -0.13699004 -0.3050153 0.051757243 -0.7491022 0.06304576 0.18901268 0.38346535 0.09673393 -0.28232506 0.4195918 -0.4962281 -0.47124627 0.1080148 0.05895955 -0.047708265 0.92212594 -0.33736154 -0.00044017404 -0.21736792 0.059598394 -0.3825953 0.32731873 -0.16945267 -0.13315839 -0.7201897 0.036900602 0.339004 0.50856394 -0.6314756 0.1210787 0.04874128 0.16846615 -0.2041462 0.45348632 0.044830382 -0.09504729 0.69596505 0.048088137 1.0355594 0.2559224 -0.16328762 -0.36587414 -0.3599308 -0.0010128169 0.47442234 -0.046172723 0.39512387 -0.098272875 0.27235192 -0.07147574 -0.5622284 0.3247666 -0.08557959 0.07525434 0.08399213 -0.44312152 -0.17358872 -0.22131556 -0.04910993 -0.15338008 -0.17056245 0.16805658 0.06356331 -0.67964464 0.39610347 -0.68691754 -0.5089674 0.010293827 -0.07961449 0.29711285 0.122328356 -0.025777688 -0.1762206 -0.046205144 -0.39716652 0.16101767 -0.5788295 0.21552308 -0.4339179 0.08667793 -0.36039844 1.0357814 0.55824643 -0.016775887 -0.1489482 -0.051905677 -0.5151382 -0.058789365 -0.24713635 0.44672963 0.18626823 -0.033969227 0.23892881 0.10441867 0.051566914 -0.7832927 -0.429654 0.5850162 0.062582076 -0.144095 -0.41079563 0.2225481 0.5949254 -0.09122619 -0.048702836 -0.2813737 -0.52157027 0.37805185 0.16401316 -0.41201502
1350 0.2746091 0.5599991 0.24615204 -0.119927116 0.05260419 -0.2152566 0.03483404 -0.14752409 0.11745707 0.38130885 -0.12935348 -0.070731916 -0.30061015 -0.57011473 -0.3672062 0.010204048 0.09842021 0.17421076 -0.20352443 -0.3256323 0.08533816 -0.42279866 -0.003078216 0.013002001 0.32116354 0.1857045 -0.24494393 0.0046834243 -0.5216401 -0.2548504 -0.059625547 -0.029491201 -0.2260861 0.72505623 -0.080861084 -0.09945705 -0.16429351 -0.0051556607 -0.21092166 0.1797738 -0.0281737 -0.14779036 -0.59268904 0.06833674 -0.040011615 0.41321653 -0.49070647 -0.05992173 -0.08556725 0.09842842 -0.07912294 0.38451043 0.1850148 -0.24881685 0.20111844 0.0704754 0.57356954 0.25959563 -0.031526472 -0.18963626 -0.1865489 0.06957915 0.6152634 -0.21869715 0.3628332 -0.10375107 0.048704855 -0.025985332 -0.575007 0.34724396 -0.06268301 -0.035757955 0.21480335 -0.18710127 -0.15794325 0.06998256 -0.12409968 -0.010876065 -0.32801533 -0.18254481 0.1585393 -0.58691156 0.60121804 -0.62573534 -0.5209979 0.13285524 -0.0640958 0.20592251 0.32614017 0.11425638 -0.3351569 0.21143791 0.060766373 0.06463757 -0.5058471 0.19104986 -0.11495337 0.35426202 -0.5019755 0.9247532 0.51459634 0.17941873 -0.032056097 -0.13444063 -0.27510047 -0.042192772 -0.14375468 0.38593048 -0.10096091 -0.12568939 0.32255524 0.09293986 -0.18870825 -0.5075793 -0.34114814 0.4810402 -0.095443204 -0.19656597 -0.13425264 -0.03825876 0.28725177 -0.058054913 0.31418088 -0.41420847 -0.59038347 0.42408404 0.15129237 -0.41752106
1845 -0.009947819 0.15421864 -0.05602635 -0.08496218 0.34300756 0.03262192 0.061886452 0.38209456 0.1732212 -0.16897205 -0.29107147 0.22350644 -0.5179226 -0.36699742 0.0725561 0.34720534 0.73470294 -0.008922655 -0.28892982 -0.023497652 -0.1459658 0.14277327 -0.032322276 0.1099052 -0.020782396 -0.21135415 -0.16368705 -0.4368421 -0.10485879 -0.22672907 0.7038402 -0.35396436 0.040696956 0.2542254 0.6376456 -0.2588592 0.25664866 -0.09868522 0.14924699 0.3520221 0.23540641 0.6022311 -0.2581554 -0.121913545 0.25814423 0.3894193 -0.645052 0.622305 -0.29654017 -0.10872582 -0.23532175 -0.23174569 -0.16643938 -0.004974061 -0.3485662 -0.3397216 0.21408354 0.41694602 0.08379405 0.025544638 -0.06671995 -0.665146 -0.09783562 0.0760331 0.0052360715 -0.11506513 -0.34999287 -0.28259793 -0.006669706 -0.30729407 -0.16803944 0.07576149 -0.11419525 -0.08346874 -0.17460358 0.28078187 -0.42851287 -0.16038294 0.20872007 0.47482657 -0.3268471 0.18816811 0.29425398 0.2926189 -0.34304038 0.8310951 -0.14368102 0.44426116 -0.07768652 -0.4990808 -0.34688616 0.06534463 0.5305533 -0.44841996 -0.20404957 0.2256992 0.069700204 0.17380449 -0.24010688 -0.044755515 -0.033133004 -0.11380052 0.19041169 0.24255732 -0.58595115 -0.43741712 -0.37974843 0.08863872 0.27723587 -0.099411026 0.5101873 -0.24356408 0.18190835 0.10743712 0.20270555 -0.07940616 0.040990286 -0.1527856 0.046826195 -0.11175004 0.06481802 -0.4642494 0.20094831 -0.50396705 0.3003369 -0.10157116 -0.35757518 0.75276464
489 0.120471105 -0.04764888 -0.09774155 0.14663593 0.06584356 0.114359185 -0.07916946 -0.059619654 0.32929832 0.24987894 -0.1034344 -0.15071376 -0.11977327 -0.31057897 0.016630743 0.041828334 0.2361042 0.04692219 0.010712058 -0.060891528 0.32202977 -0.09642904 -0.2298529 0.09342031 -0.016537543 -0.012553923 0.016948514 -0.15373577 -0.0657906 -0.14588255 0.360161 -0.2285354 0.0091799665 0.007210201 0.25080913 0.052491095 0.110122316 -0.08659683 -0.047637414 0.36693653 0.114231244 -0.14564507 -0.065183125 -0.20952855 0.12496034 0.117381714 -0.40104532 0.1452752 -0.0384643 -0.10924514 0.070823714 0.03219347 0.1030449 -0.01824204 -0.043807425 -0.04879956 -0.03779079 -0.06611046 -0.016900305 -0.031754937 -0.07529857 -0.25392434 -0.014362909 0.120168224 0.11690515 0.07666921 -0.14781265 0.14708063 0.18063492 -0.00584695 0.051976867 0.10001506 -0.092809714 -0.1333989 0.0029948666 0.1432054 0.26472732 -0.16389666 -0.021614673 0.10708895 -0.13182265 0.07999865 0.15040249 -0.1075979 -0.0030272743 0.29744804 0.046698477 0.111950584 0.0490106 -0.05913561 -0.26760522 0.047734268 0.16938707 -0.098055206 -0.10653292 0.15896823 0.15581596 -0.14147335 -0.1560092 0.053516675 -0.035480823 0.037636336 0.26247317 0.103531316 -0.24728602 -0.25652254 -0.071154244 0.14921458 0.10144308 -0.024054086 0.24508359 -0.18916765 -0.0662761 -0.15286055 0.06545411 0.122448415 -0.014151956 -0.15770766 -0.021572657 0.076798744 0.02646159 -0.20662211 0.07194296 -0.10691101 0.078425534 -0.033962794 -0.07461381 0.4187979
1663 0.09203205 0.08306563 -0.08793903 -0.34554246 -0.11258039 0.07090828 0.30496404 -0.049962994 0.14401484 -0.3624497 -0.03597394 0.018889716 -0.008302308 0.1737335 0.13424304 -0.11466532 0.034466714 0.21203627 -0.06315716 0.27045718 0.07201873 0.08366361 -0.05282009 -0.07401801 -0.11535009 -0.27414954 -0.019833043 0.029008178 -0.06949082 0.08909402 0.1157344 -0.19174232 -0.29341674 0.47292477 0.021160737 -0.38406378 -0.050873123 0.022662692 -0.556808 0.076424465 0.0485488 0.00017882977 0.02094559 -0.3492752 0.013428424 -0.15370326 -0.08268341 -0.030895717 0.3547692 0.10150731 -0.0035305903 -0.14597364 -0.044944227 -0.3816944 0.0029176027 -0.0787272 -0.07205616 0.05107607 0.13258566 -0.12872607 0.19029973 0.27077216 -0.022652892 0.022272503 0.3731135 -0.13436387 -0.1796967 -0.31836474 -0.09534561 0.04939892 0.14542666 0.014733615 -0.10318555 0.003684943 0.09046072 0.022877276 -0.10534452 -0.07301781 0.45326295 0.28255808 -0.33130172 -0.10686714 -0.34874877 -0.4858863 -0.21162687 0.17974567 0.09293384 -0.18158937 -0.016841361 0.14010416 0.07985528 0.09201294 0.2729608 0.23562594 -0.18604597 0.2724423 -0.10566667 0.14118643 -0.025335751 0.21314317 -0.107361324 -0.1408679 0.17319949 0.27898738 -0.0044990378 -0.1448593 -0.11875117 -0.027693834 0.4375999 0.18600303 -0.22271709 0.044274088 0.36521804 -0.110610396 -0.14874169 -0.2512737 -0.22913013 0.40260682 0.08414776 -0.22937994 -0.033671048 -0.39434478 -0.044801537 -0.07378699 0.05921106 0.05904014 0.529987 0.017981825
1684 -0.18578775 0.21999003 -0.1791782 -0.371114 -0.019463502 0.06606738 0.2134209 -0.10175854 0.365645 -0.47988498 -0.04422886 0.16002665 0.00426275 0.062139057 0.07740672 -0.030921899 0.15930907 -0.3166162 0.00094177393 -0.039541874 0.16609645 0.20861822 -0.12983939 -0.19766654 -0.13668524 -0.23714925 0.070925556 -0.0454306 -0.10876155 -0.10598089 0.16456741 -0.40581855 -0.26883256 0.45007536 0.049815077 -0.19327858 0.036894817 0.060006857 -0.28338915 -0.063449524 0.05680389 0.12679505 -0.21470653 -0.16277061 -0.26938114 0.059291452 -0.1546499 0.08242249 0.68718576 -0.1945861 0.19130155 0.05905575 -0.064778656 -0.41283402 0.28627336 -0.31845427 -0.23214883 -0.05678026 0.094004326 -0.1924814 -0.044338036 0.056709036 0.04919532 -0.094101176 0.31826368 0.18708974 -0.10623057 -0.45944476 -0.074333906 0.23239405 0.13378924 -0.04197989 0.06265184 0.1719673 0.019101646 0.044248927 -0.15364505 -0.31274307 0.21140069 -0.0010086971 -0.23022911 0.08699259 -0.16719344 -0.32860878 -0.21658576 0.2230817 0.32149312 -0.14890525 0.044746496 0.08886142 0.14709851 0.1318456 0.21040753 0.14571835 0.05752049 0.04684041 -0.20369013 0.3153538 0.25100154 0.3746304 -0.15708433 -0.17947575 0.041146092 0.23593313 0.011322661 -0.31046033 -0.15443116 0.13815072 0.330587 0.38993558 -0.0869501 0.24064906 0.3456916 -0.3186245 -0.010552713 -0.17179286 -0.21716557 0.35563064 0.2520302 -0.036595985 -0.050492153 -0.39571157 -0.013652257 -0.06385416 0.007914401 -0.052188516 0.33732352 0.3758351
742 0.04989504 0.10513713 -0.16762756 -0.5897621 0.21121809 0.2884138 0.08184325 -0.36906517 0.19607213 0.24455845 -0.17329729 -0.2805698 -0.0052753882 0.012363614 -0.1052038 -0.47675425 0.06684409 -0.16601421 -0.111117534 -0.10694839 -0.0015191059 0.18852384 0.18938449 0.38154683 -0.15031156 0.33956143 0.16929634 -0.24505018 -0.2627894 -0.14997093 0.07351418 0.25527093 -0.12834252 0.4787991 0.18084991 -0.16514888 -0.040354315 -0.47722682 -0.3142097 0.1011944 -0.22862898 -0.06069622 -0.2103523 -0.09641807 0.12639004 0.33351114 -0.30108273 0.15089174 0.13944124 -0.20469055 0.37684706 -0.31853363 -0.25008747 0.17740743 0.041698158 -0.49893796 0.031597592 0.08003835 0.20672104 0.30935767 0.13070002 0.066328086 -0.20737092 0.12776743 0.13218209 0.10178465 -0.053539477 0.04749111 0.23404378 0.083121635 -0.12924416 0.059713807 0.11709634 0.038595147 -0.121836446 0.048960283 0.2107406 0.047347475 0.17614026 -0.57705 -0.3969263 -0.10987876 0.20945607 -0.019261902 -0.27101412 0.24112402 -0.5521338 0.15547957 0.021022126 0.18834692 -0.21323013 -0.10927786 0.005322451 -0.08721057 -0.0046233656 0.27059793 -0.0318653 0.44388777 -0.30900854 0.0001086901 -0.52118224 -0.23992196 -0.039730188 0.08959123 -0.04985681 -0.11819254 0.16587076 0.23726912 -0.36223578 -0.07319446 0.03626021 -0.08593951 -0.42276913 -0.022090532 0.1365963 -0.11941213 -0.09002243 -0.49131712 -0.5688003 -0.18395382 0.27175057 0.31190735 -0.14424616 -0.049465388 -0.07293097 -0.2104655 -0.039160438 -0.04577742
476 0.33575568 0.15907443 -0.29565504 0.10248976 0.0032848418 0.028030993 -0.015264274 -0.37656802 0.122455336 0.44159538 0.23267694 0.039117865 -0.14036842 0.052971963 -0.48215905 -0.13275857 -0.11390476 0.14747407 -0.11185364 -0.16865626 0.123793505 0.11912241 0.10735126 0.105359 -0.26164886 0.08828725 0.3661923 0.06955916 -0.33278307 0.0031817183 0.13531041 -0.00023018103 -0.07297928 0.06559873 0.20538814 -0.07535025 -0.054060657 -0.17639865 -0.35643557 0.15771422 -0.044901554 0.01468748 0.15883292 0.023970116 0.39823928 0.24181522 -0.0013561918 -0.009840325 0.21964735 0.25829563 0.22609718 -0.17921288 -0.12981422 0.09395047 0.15909131 0.05406544 0.27530432 0.005518674 -0.19456151 0.10798722 -0.103585824 -0.17008628 0.05256599 0.23668773 0.031696416 -0.106978714 0.16781007 0.08579689 0.33011723 0.4587541 -0.019092802 0.20255652 0.16704722 0.17997561 -0.018616298 0.047917463 0.25323752 0.06208121 0.28704798 -0.2910909 -0.45709684 -0.22504322 0.16022265 0.11311562 -0.32135996 0.48500264 -0.38603288 -0.35030466 0.44531143 0.2905009 -0.14309572 0.003431315 -0.05436792 0.09963043 0.06498075 0.05017613 -0.14427249 0.026668184 -0.41256666 0.26934692 -0.3785037 0.050880186 0.14274523 0.032975335 -0.21936457 -0.2639817 0.2553586 0.078368366 -0.508618 0.14721581 0.02665164 -0.17075989 0.15569855 -0.24152422 0.037038654 -0.031680685 -0.16817497 -0.01812184 -0.2001858 -0.14620858 0.24645278 -0.11487581 -0.042615708 0.2754263 -0.17499934 -0.27926755 0.15424092 0.051635347
1406 0.13839503 -0.08137851 -0.34212288 -0.016608434 0.055888418 -0.07068958 -0.070284955 -0.13889128 -0.06401441 0.025891855 0.12219251 0.07155636 -0.014877896 0.10893543 -0.17740269 -0.05463074 0.3753385 0.366018 0.27808237 -0.281424 0.26477343 0.0002752038 -0.05677939 0.1541221 0.12058826 0.2816625 -0.13535467 0.081904076 -0.07520317 0.20088133 -0.23248035 -0.13076635 -0.07016287 0.28566325 0.056609087 -0.11636979 0.08942501 -0.25519323 -0.20483015 0.15056214 -0.19216834 0.33199307 -0.08716355 -0.026207635 -0.27221122 -0.038760204 0.14043508 0.0013088317 -0.057904836 0.34834847 -0.06684095 0.32825047 -0.1572408 -0.50401884 -0.1507697 -0.08987622 0.18876614 0.20608273 0.10093906 0.43227875 0.015707618 -0.00290726 -0.18143979 0.27003857 -0.24655236 0.32159448 0.28857106 0.09010621 0.093355544 0.32752883 0.009574021 0.3316431 0.53645647 0.11138349 -0.17714088 0.066376686 -0.00903135 0.17094813 0.1530754 -0.07961958 -0.093751565 0.043354988 -0.20392759 0.1732614 0.08199954 0.21754992 -0.3829416 0.2427356 -0.5240488 -0.27652207 0.13223948 -0.19695215 -0.10977135 0.061742455 0.15286802 -0.1125786 -0.3777962 0.15152447 0.08962436 0.32083282 0.029781625 0.16198249 0.48347354 0.3472154 0.13941142 -0.04515266 -0.40364873 0.091196954 0.4492871 0.09587323 -0.3374654 0.016851094 0.24334733 -0.06002338 -0.01900548 0.50576794 -0.16472101 -0.43617073 -0.29432395 0.14150003 -0.12517472 0.12861674 0.235981 -0.032268133 -0.16087876 -0.044135883 -0.112850346 0.08752667
1449 -0.055097997 -0.22417912 -0.41725442 -0.1728293 0.08022913 0.20044795 -0.2381251 -0.19935563 -0.046535626 0.12980026 0.10721229 -0.058452576 -0.12669142 0.045495704 -0.4506946 -0.0885685 0.1270048 0.321327 0.2839076 -0.00880079 0.3787921 0.18067613 -0.15225506 -0.06538153 0.07559372 0.40046194 -0.09152957 0.21807595 -0.07321571 0.067872055 -0.15642203 -0.21478666 0.038782224 0.2777573 0.15623577 0.051347136 0.33479553 -0.2571057 -0.2569015 0.00041296906 -0.09697164 0.3282095 -0.030809073 0.0708429 -0.26291186 -0.12278847 -0.08588884 0.2668235 0.032058623 0.275304 -0.14989525 0.13213336 -0.059568483 -0.33358052 -0.28553155 0.037407935 0.16097005 0.22470738 0.27985156 0.29966736 -0.04159944 -0.15883741 -0.1635038 0.08525092 -0.0324081 0.35755092 0.20771834 0.24610831 0.30264375 0.2213435 -0.03525488 0.3965003 0.5822478 0.13355611 0.058030427 0.16356204 -0.14571673 0.08555134 0.2954778 0.09161539 -0.040654697 -0.16446488 -0.37078637 0.20816329 -0.12061914 0.083088905 -0.1960974 0.17371835 -0.5520851 -0.43670604 0.053416204 -0.029092966 -0.17680238 0.25379997 0.23814775 0.16891265 -0.25817272 0.1163561 0.12091253 0.4026944 0.06779575 0.107405074 0.23523946 -0.109718174 0.1185306 -0.07255395 -0.33224759 0.23144555 0.46691313 -0.16877256 -0.28557214 0.05616088 0.39569506 -0.020377358 -0.15014683 0.6059677 -0.1156903 -0.40376103 -0.13274397 0.1591476 -0.37197426 -0.056732062 0.17117707 -0.0010691609 -0.1516021 -0.06717528 0.026078861 0.019448923
318 -0.21460752 0.06481457 0.09024406 -0.1064815 -0.07742067 -0.08297396 0.13258576 0.03604543 0.064289324 0.10607807 -0.27403146 0.38999376 0.039042596 -0.3306091 -0.32349625 0.18801735 0.15667185 -0.0227728 -0.061926384 0.22623724 0.3208002 -0.042844497 -0.16263294 0.15345016 -0.07263371 0.50917023 -0.112542816 -0.16338336 0.22032227 0.11426596 0.19283524 -0.6396498 -0.012650744 0.26202092 0.41791612 -0.5964879 -0.005770699 -0.082685106 -0.13100804 0.05223047 0.23081516 -0.23288287 -0.08022475 -0.24248394 0.15901239 0.3312629 -0.10211498 0.2574593 0.14380434 -0.18737163 -0.15981832 0.043639474 0.5505276 0.23587571 0.42372477 -0.43830797 -0.106209435 0.03887753 -0.08425825 0.07865857 0.004666004 0.25637496 -0.004344427 0.060011595 0.08244514 -0.127951 -0.13729127 -0.27512446 0.05707825 -0.24958247 -0.46476677 0.11888547 -0.33347812 0.048101775 -0.017081315 -0.17517944 0.22300775 0.42378438 -0.19278684 -0.03926216 -0.26235157 0.17474477 -0.22002107 0.30822778 0.15697606 0.27629307 -0.2573696 -0.1978719 0.3634392 -0.2519536 -0.26495022 -0.0568022 0.43591717 0.48882285 0.4631359 0.16227166 -0.07638675 0.22623093 0.0048350673 0.3320901 0.37605998 -0.18210906 0.0800013 -0.17601177 -0.17144957 -0.20976949 -0.17144443 -0.06499166 -0.2348492 0.44072235 0.5892304 -0.2709247 0.04311785 0.21495853 0.0007272959 0.21714541 -0.17934282 -0.004514517 -0.29702425 -0.11352224 0.072645634 -0.07211233 0.25357074 0.11488331 0.08008811 -0.14544883 -0.2942524 0.34203923
1991 -0.5103617 0.4141222 0.15471913 -0.101641655 0.26827726 -0.2678862 -0.052263483 -0.46561393 -0.3414615 0.11329443 0.2945289 -0.6521548 -0.15402812 0.26383093 -0.36165905 0.37718305 0.5275484 -0.75844455 -0.45603952 -0.7614556 -0.262975 -0.16488904 -1.0318873 -0.7050659 -0.02954959 0.09445847 0.66544694 -0.100477576 -0.43129495 0.69478065 -0.10109162 -0.037216034 -0.7151278 0.110861145 0.06964874 -0.064212464 0.17675011 0.21330237 -0.08778304 0.23257783 0.20732081 -0.70121884 0.49555445 0.2334304 -0.6158324 0.08241951 0.43238148 -0.3858768 0.026851015 -0.26256204 -0.11334342 -0.6948345 -0.16335703 -0.41157112 0.12615861 -0.08485482 0.15797395 -0.5233818 -0.019845739 0.22388774 -0.66074073 -0.087331206 0.492284 0.36643815 0.080869645 0.4526025 0.526176 -0.5938241 0.038927518 0.23673427 -0.32451457 0.52386826 0.73869455 -0.083273716 -0.90940434 -0.5949087 0.8221605 0.44287807 0.29843467 0.41847187 0.09531198 -0.257465 -0.78702193 -0.6481602 0.033561103 0.17995521 -0.31314752 0.21568291 -0.00094767 -0.6749744 0.55384123 0.67619646 -0.297284 0.011109087 -0.0786329 0.22294658 -0.21372001 -0.44133475 -0.13667025 -0.32924533 0.33073288 0.27527907 0.8432321 -0.046747852 0.7215323 -0.104914054 -0.023334231 0.11950695 0.3602245 -0.849648 0.16559456 0.07341332 0.11310976 -0.46779615 -1.1307043 -0.21577139 -0.0827044 -0.9297973 -0.1376082 -0.45931908 0.37069902 -0.08317742 -0.094621345 -0.8392326 0.5579034 -0.2960861 -1.2176399 0.4584747
2048 -0.91174835 0.63409907 -0.01422933 -0.08782938 0.10330321 -0.44395283 0.0036931045 -0.4242192 -0.14625254 0.33337793 0.3917822 -0.73638165 0.008390379 0.54826736 -0.31448653 0.46996665 0.40679467 -1.3894458 -0.7616781 -0.8743142 -0.32932502 -0.07615515 -1.3287513 -0.33281043 -0.14467803 -0.07995529 0.6340836 -0.10901014 -0.92072475 1.1871904 0.016839424 -0.23902813 -1.0777905 0.060060617 -0.06271394 0.08378748 0.3177737 0.379716 0.22436452 0.30524808 0.15107863 -0.78441787 0.436833 0.39816985 -1.0594248 0.025672445 0.77970016 -0.38721517 0.28995463 -0.10927161 0.09611141 -1.282467 -0.4588601 -0.58798414 0.2638025 -0.4200049 0.42311364 -0.50773066 -0.30314502 0.18170038 -1.0337477 0.025243782 0.33216155 0.33339173 0.31490722 0.5089183 0.73486376 -0.7800608 0.09038002 0.021870447 -0.40185973 0.57613546 0.7872148 -0.51123166 -0.93240106 -0.7027815 0.9759666 0.63309133 0.40872014 0.32690707 -0.04521599 -0.47095153 -0.71675485 -1.0403925 -0.26985252 0.06177159 -0.1522466 0.4222956 0.12917255 -0.51512253 0.40479228 0.59341484 -0.17116539 0.43053064 0.35659814 0.4473213 -0.45784432 -0.6110069 -0.03534499 -0.34706882 0.33580646 0.5831458 1.0360142 -0.019918729 0.5461387 -0.37636197 -0.23791568 0.09844366 0.5089708 -1.04906 0.33058682 0.1491863 0.6478582 -0.57385004 -1.3202213 -0.053130507 -0.15593466 -1.1050594 -0.34804496 -0.1345321 0.34534737 -0.15316202 -0.11573179 -0.79140145 0.82047564 -0.5032553 -1.2917918 0.28740028
1445 0.06322098 -0.28238562 -0.3478172 -0.11233305 0.11625084 0.20525056 -0.14100407 -0.0986941 -0.008791695 0.0018220614 0.19778319 0.14435507 -0.20235866 -0.051669985 -0.3878824 -0.2846992 0.26227784 0.25364658 0.410813 -0.012954234 0.25640666 -0.09631321 -0.03064394 0.07397053 0.122157305 0.23124132 -0.14425041 0.17773914 -0.026260724 0.11224283 -0.29216933 -0.09439715 0.021294214 0.17581254 -0.062566444 -0.10465272 0.08392937 -0.35383186 0.006245714 0.050092768 -0.042616062 0.25346753 -0.0932091 -0.033242803 -0.2489259 -0.037731223 0.035893578 -0.04633844 0.014629842 0.38678655 -0.016417956 0.19745336 -0.003860281 -0.3929797 -0.046804532 0.02584627 0.13568129 0.37708658 0.11044383 0.4430968 -0.0679056 -0.021427106 -0.062416535 0.24533379 -0.30164805 0.27752322 0.1533528 0.19809505 0.2776409 0.009606579 0.084441945 0.18597513 0.64051956 -0.029321166 0.1506729 0.057692118 0.10089887 -0.3070402 0.124601655 0.036976516 -0.008775569 -0.054651856 -0.40177575 0.30344966 -0.026477423 0.2053692 -0.18485387 -0.29360712 -0.39067733 -0.13473198 0.072657146 -0.004870485 -0.16121498 0.22873893 0.11566754 -0.06285616 -0.17858574 0.025561439 -0.009924488 0.445617 -0.0054295124 -0.14982629 0.2702965 0.015487914 0.20952646 -0.002405107 0.009645347 0.21690391 0.3632514 -0.06998842 -0.3037278 0.17214799 0.27529192 -0.09116448 -0.041019004 0.39542198 -0.16066241 -0.23541124 -0.21352667 0.045936346 0.052399427 0.013688892 0.19927505 0.012135175 -0.2373817 -0.04674686 0.013860651 0.15896617
1448 0.030306607 -0.5951229 -0.35078552 -0.12007147 -0.12304398 0.18608311 -0.18890685 -0.24124286 0.33736944 -0.08256609 0.07400381 0.2031982 -0.3810084 0.09879266 -0.20409982 0.2580083 0.29252034 0.62270904 0.27011538 0.054082192 0.056100663 0.11754538 -0.44454816 0.14670171 -0.13773221 0.23276992 -0.12919997 0.2710691 -0.30310896 0.24311057 -0.037759442 -0.38203874 -0.027846634 0.35066676 0.32126945 -0.042423014 0.14668575 -0.30738565 -0.03479276 0.17564219 0.08478099 0.44916576 0.06706183 0.4609928 -0.024762748 -0.27146986 0.029603818 0.03560274 -0.06979765 0.18480317 -0.011829787 -0.061915495 0.025089618 0.07077004 -0.14689438 -0.28375638 0.23268056 0.37388736 0.3442584 0.12193352 -0.0005105248 -0.07605273 -0.07766909 0.29003775 0.11544243 0.40648204 0.22010557 0.28552863 0.16118437 0.19205229 0.19355248 0.37406668 0.6731455 -0.08120819 -0.020123651 -0.009542231 -0.2575598 -0.32786846 0.4677678 0.042416204 -0.0025284654 -0.15483811 -0.42497376 0.07468332 -0.06020514 -0.55844563 -0.3420378 -0.05355379 -0.31675345 -0.4493544 -0.24825566 -0.043122597 -0.15189865 0.16376548 -0.20392528 -0.17177486 -0.15090182 0.14731508 0.06564932 0.1290209 0.15492812 -0.11728285 -0.07077178 0.19017327 0.11616884 -0.20290038 -0.44802794 0.18694566 0.48292208 -0.043309834 -0.14909425 0.14962482 0.34446344 -0.2762692 -0.116572455 0.6244523 -0.18871701 -0.3162121 0.103159375 0.3039803 -0.107531756 -0.33775166 0.098086 -0.05335263 -0.05656165 -0.064847164 0.0062155467 -0.013688644
2312 -0.25242925 -0.018342977 -0.27494806 -0.095144846 0.26089612 0.44443116 0.1505388 0.11518788 0.12054503 -0.15749829 0.33207658 -0.19488561 -0.4392342 -0.018315606 -0.23690219 -0.03371331 -0.14442663 -0.20250235 -0.4849206 0.21466687 -0.086547896 0.28242418 -0.10345956 -0.0395423 -0.039525148 -0.43981254 0.21956472 -0.35732773 0.15510644 -0.05755925 -0.069128364 -0.36152893 -0.06999223 0.33479592 -0.039122317 -0.4560778 -0.03886873 0.06911199 -0.013262571 -0.014866427 0.15641452 -0.0510361 -0.2715811 0.13850428 0.19130069 -0.1969777 -0.2713468 0.25398654 0.22419958 0.25921425 -0.22806488 -0.1094075 0.08442822 -0.4197217 0.07982289 -0.11591085 0.27153584 0.27164885 -0.14823592 -0.13012847 -0.17992093 -0.011449062 0.5296413 -0.4017475 0.13794893 -0.21467604 0.25119424 0.117827095 -0.18609299 0.13627304 0.2104265 -0.0050455593 0.25906184 -0.13939366 0.15018006 -0.13304605 0.49802047 0.225134 -0.2878068 0.26629472 -0.07203825 -0.34745044 0.008307835 -0.08910564 0.13822955 0.040484823 -0.035093844 -0.21052706 -0.08424418 0.044922248 0.012003884 0.16555345 0.29850924 0.016157975 0.16107321 0.05999806 0.059636705 0.20183542 -0.022446556 -0.23356774 -0.2259007 0.36976197 0.061651625 0.1512012 -0.010797601 0.3406944 -0.15021983 0.007861908 -0.1800276 0.20622614 -0.27245823 0.17234904 -0.25752106 0.16943318 -0.06356758 0.32048494 -0.5416451 -0.03923331 -0.0232772 -0.34835678 -0.48719874 -0.21367235 0.20509799 -0.2906714 0.18462992 0.22751321 0.11701419 -0.40976644
2178 -0.47516796 -0.4709728 -0.27549538 0.036024887 -0.30961972 0.7226358 0.24652195 0.1163725 0.61360615 -0.034295782 0.679309 -0.07383916 -0.18302618 -0.1216332 -0.2616971 0.2144624 0.08716658 -0.105262734 -0.60327095 0.09037525 -0.34035492 0.073501766 -0.32860073 -0.15402 -0.12763008 -0.10537759 0.52667254 0.1207537 0.19703303 0.22251332 0.2306699 -0.19867706 -0.3408955 0.2487049 -0.01983207 -0.5739381 0.15004644 0.072707444 -0.17454563 0.23121186 -0.09511811 -0.18119626 0.0090043275 0.26544407 0.30056715 -0.5175896 -0.33997583 0.2841355 0.23654407 0.34926108 0.42681924 -0.19355212 -0.14252765 -0.53703433 -0.035856806 0.04307218 0.28399092 0.46371657 -0.13166839 0.04241526 -0.018228702 -0.098269664 0.58733106 -0.36685735 0.06585664 0.017258089 0.6285767 0.26056212 0.057866234 0.4341296 0.40458983 0.15982053 0.46025872 -0.149381 0.104635075 -0.2611657 0.5345368 0.15863554 -0.42078137 0.19313532 -0.07266119 -0.14740339 -0.26285833 -0.060860444 -0.002073135 -0.027396046 0.49174547 -0.35968506 -0.058425944 0.2543847 -0.43757924 0.10795569 0.23192868 -0.42083296 0.28369907 -0.02854783 -0.31720307 0.1179867 -0.040954567 -0.08056352 0.097449556 0.24350527 0.074834995 0.734814 -0.4277352 0.78429544 0.25615343 0.046623707 0.05034076 0.21280771 -0.10618105 -0.20221625 0.018586861 0.10887903 0.33440214 0.243943 -0.25424162 0.341942 -0.31406307 0.22029033 -0.6259374 -0.14817373 0.15319377 -0.6683568 -0.22108415 -0.12187933 0.095501505 -0.4223282
1461 -0.09827103 -0.45063424 -0.5047773 -0.18161266 0.040708847 0.14057529 -0.28209475 -0.2560955 0.097470276 0.022893874 0.08336983 0.09782524 -0.20252968 -0.002696448 -0.4308419 -0.25445464 0.073247515 0.45674065 0.26009816 -0.011440021 0.31816304 0.26574126 -0.24021979 -0.083770886 0.045411643 0.3635603 0.0152464 0.23184173 -0.09494173 0.14963874 -0.27379283 -0.040992074 0.086257115 0.3213058 0.054735538 -0.12138782 0.3714703 -0.41199574 -0.013322654 0.007322372 0.02106844 0.35723123 -0.09900796 0.15911534 -0.3538132 -0.055134393 -0.05409289 0.14337717 -0.0147869 0.14433295 -0.026986308 0.07129328 0.13082595 -0.10799572 -0.119759426 0.016312173 0.12958223 0.32898542 0.26483294 0.31968302 0.07367702 -0.18185458 0.009771159 0.16218232 0.05783418 0.30912954 0.21549614 0.16389816 0.33791047 0.11773129 0.05992034 0.3856963 0.5928369 0.12803842 -0.06766051 0.15654938 0.06252636 -0.0043859035 0.17421044 0.14768255 0.022772579 -0.1865625 -0.5276058 0.080402665 -0.073632896 -0.056975666 -0.2682399 -0.012938027 -0.37857014 -0.5256265 0.16252756 -0.008266065 -0.19719645 0.34627512 0.06567374 0.102317445 -0.27472717 0.148248 0.1637805 0.46044043 0.13310337 0.16242985 0.10021764 0.010598883 0.15003915 -0.09311794 -0.45552891 0.1911868 0.46575543 -0.31013063 -0.2870087 0.050755087 0.5303788 -0.047309816 -0.015518278 0.46320555 -0.14547005 -0.35260007 -0.07894244 0.27056783 -0.18433145 -0.07188135 0.36226234 0.1036247 -0.16792433 -0.1659426 -0.016022908 0.15029897
1458 -0.07004043 -0.38524148 -0.4713405 -0.123556495 0.03228251 0.20274886 -0.29164618 -0.19728994 0.18832123 0.016124235 0.051744945 -0.035864856 -0.12230852 0.04502172 -0.40829885 -0.2994232 0.028053273 0.37365824 0.27715674 -0.015959755 0.23161036 0.2333826 -0.1622164 0.090547554 0.07716539 0.4230361 -0.005472664 0.3187517 0.0041166996 0.12752333 -0.26335788 -0.0070903837 0.1119191 0.22191943 -0.03391909 -0.17149031 0.32294902 -0.4544338 -0.0720374 0.004550219 -0.0016893633 0.442606 -0.2135004 0.057284556 -0.35150525 -0.052398056 0.025468538 0.1602229 -0.07185999 0.23955084 -0.08949852 0.23020616 0.10487183 -0.17107728 -0.13624221 0.088909 0.10979321 0.32206908 0.31644917 0.30886275 0.101361625 -0.22287036 0.003986778 0.23468894 -0.027084952 0.34877148 0.13230738 0.2977553 0.2933982 0.084083684 0.047846783 0.36550367 0.6111578 0.17388165 0.021756701 0.1520691 0.05442993 0.0476767 0.2671832 0.046284962 -0.09862309 -0.13618968 -0.49296102 0.05011806 -0.116795935 -0.06533843 -0.16053659 0.04800704 -0.41662964 -0.45051274 0.124444254 -0.074016236 -0.27651638 0.29200652 0.06962541 0.16383219 -0.2523021 0.21341017 0.09502562 0.47022387 0.08340653 0.10761223 0.16077359 0.10761881 0.07232969 -0.052741665 -0.46883485 0.19623826 0.44816697 -0.23785657 -0.26526025 0.024840334 0.40160742 -0.2492683 -0.1826173 0.43841767 -0.12146724 -0.3118449 -0.15386148 0.26622093 -0.20877558 -0.07498115 0.24757047 0.07592653 -0.25062698 -0.07806336 -0.036505736 0.20382905
244 -0.11172747 0.24950275 -0.05449725 -0.017827641 0.14071001 -0.02953809 -0.12146174 0.029948443 0.17079346 0.19155627 -0.12921703 0.24166872 0.23080288 -0.05092808 -0.1749232 -0.38267392 0.27884573 0.17595376 0.13540293 -0.07706593 0.050908215 0.1891023 -0.12628317 -0.12942667 -0.052230205 0.12804759 0.011659855 -0.047725637 -0.02006155 0.14697385 -0.30974662 0.11573768 -0.2353901 0.31947815 0.2895072 -0.013328067 0.106588356 -0.19314975 0.022834102 -0.64017284 0.16031922 0.34108484 -0.27390972 -0.27313948 0.086390756 -0.092132166 0.34903347 -0.09372992 0.13094394 0.36852157 -0.21348485 0.32422215 0.19094743 -0.2948688 -0.0846804 -0.0050437646 -0.052053683 -0.07144319 -0.13600405 0.29397765 0.1480959 -0.035277147 -0.007780833 0.11703467 -0.097758785 0.48536918 0.2862667 -0.2980827 -0.0691082 -0.09414899 0.20114964 0.13870585 0.058795154 0.39042804 -0.14917104 -0.04650247 -0.090319686 0.14186986 -0.037366886 0.14971627 -0.15320475 -0.20484333 -0.31927818 -0.028902806 -0.047747966 -0.22327758 -0.2298366 0.28177977 -0.6215559 0.08945188 -0.17784125 -0.16820368 -0.22660446 0.033586893 -0.050882805 0.15506743 -0.05545649 -0.07414963 -0.07502699 0.06125627 -0.13580562 0.029835066 0.36101803 0.3209166 -0.24087836 -0.27598202 -0.20626248 0.25804082 -0.05645328 0.011588932 -0.047221147 -0.06984421 0.06284814 -0.098238416 0.12117142 0.55395544 -0.3783354 -0.1584931 0.19610138 -0.048097316 0.124238655 -0.12150393 -0.016556697 0.06474156 -0.14260861 -0.05480265 -0.19230162 0.112745516
232 -0.13693248 0.238276 -0.20202595 -0.070175864 0.23184174 0.21352047 -0.19690926 -0.11273618 0.14764951 0.16943674 0.19055791 0.047397528 0.056526836 -0.09947673 -0.047721364 -0.45683315 0.14128797 0.03971045 0.1859209 -0.163812 0.04496317 -0.123780034 -0.14006935 -0.14748695 -0.008420101 0.10412437 0.07452398 -0.31992555 -0.10484487 0.21438074 -0.20016646 0.19502608 -0.19941835 0.35341638 0.1582399 0.26161072 -0.055157535 -0.03138267 0.11653901 -0.7177992 0.29212788 0.37764063 -0.29896852 -0.055301312 0.2522929 -0.025380943 0.40419877 0.01571344 0.090518884 0.11692223 -0.10644174 0.28955445 -0.05207461 -0.20722641 0.11451602 0.17143232 0.011727483 0.0986803 -0.33457658 0.3085103 -0.061517622 -0.017159637 -0.016889991 0.3209475 0.07895284 0.38813108 0.3967269 -0.087073624 0.04750566 -0.1399608 0.20111105 0.17635539 0.06288055 0.15860231 -0.35494798 -0.22400944 -0.19947322 0.11547246 0.013018903 0.35815468 -0.13004744 -0.20579427 -0.2966519 -0.049032748 0.26388368 -0.39038134 -0.098368175 0.33040106 -0.7127811 0.054441694 -0.31985506 -0.024718195 -0.3159706 0.14728533 -0.17679653 0.16084169 -0.2648341 0.045983694 0.07662471 0.046989564 -0.3475799 -0.2004955 0.30288205 0.32157955 -0.13154194 -0.21508215 -0.52757007 0.2195753 -0.1936101 0.108261414 -0.20388943 -0.05376566 0.14701301 -0.29576525 0.08454672 0.43381688 -0.29277298 -0.08570108 0.23192504 -0.19883712 -0.009485942 0.059546772 0.09956997 -0.0011898149 -0.038688026 -0.11386445 -0.16428927 0.23450132
1908 -0.08714437 0.15019971 -0.59770316 -1.0331798 -0.8731461 0.6752641 -0.0061607524 0.5114727 0.78840387 0.007598541 0.44472736 -0.3119637 -0.92188567 -0.015931321 0.34595802 0.85630435 -0.7041252 -1.2071981 1.0081303 0.49900728 -0.083998166 0.3121095 -0.7952089 1.0182285 -0.1852914 0.6508405 0.81723565 0.8185774 -0.19717947 0.9083505 -0.6502574 -0.80777633 0.091226086 0.7550299 0.080848716 0.027943494 -0.8238298 0.7781452 -1.221329 -0.30269977 0.09466664 0.88744074 0.27107182 -0.66879463 -0.32899126 0.39581105 -0.838471 -0.13263527 0.22283186 0.16014849 -0.13664888 0.21566616 0.007624133 -0.3824674 -0.2880728 0.05124232 -0.009095635 -0.38586813 0.67731506 0.3455962 0.09519419 0.17406002 0.46945357 -1.2919914 0.45994237 -0.05865164 0.23618388 -0.1710033 0.72229224 -0.13951612 0.57502985 -0.16837186 0.5971301 -0.22357799 0.43247852 -0.64122033 -0.15699875 -0.74871343 0.2823916 0.6166195 -0.24030697 -0.2059741 0.5218098 0.1200684 -0.43965364 -0.0015302616 -0.37810612 0.13852964 -0.22969273 1.4938091 0.14942437 -0.67702484 -0.47966698 -0.033475712 0.18269902 -0.3036369 0.30803123 0.45948157 -1.4131249 0.022977792 0.6433301 0.9438482 0.33938858 0.57709414 0.044636443 0.103884816 -0.12802227 0.7471543 -0.2992312 -1.2332779 0.42090037 -0.5175455 -0.4921504 -0.5078048 0.20578314 -0.19255769 0.5393174 0.026716277 -0.70531327 -0.46199334 -0.28344494 -0.16198662 0.14291164 0.40003502 -0.73003924 0.55320555 -0.15162085 0.4525322
1958 -0.21528688 0.3251431 -0.5554234 -0.7800939 -0.6623801 0.45906368 -0.13690886 0.68325996 0.6556963 0.11947245 0.30538088 -0.31321022 -0.7334753 0.19460997 0.26593763 0.409674 -0.405592 -0.88958144 0.6517853 0.6287144 -0.2853169 0.12916252 -0.7781082 0.8229003 0.007753163 0.4291581 0.55414873 0.8580162 -0.46079 0.7538832 -0.6550288 -0.8666856 0.032183807 0.8804232 -0.0358886 -0.13180186 -0.6576384 0.76293445 -1.1730535 -0.2927749 -0.19051214 0.7113234 0.17022711 -0.30272833 -0.30866158 0.38992554 -0.83585197 -0.1979483 0.25196058 0.28247634 -0.114728436 0.12398554 0.012787492 -0.12031771 -0.22181346 0.0057003116 0.10893187 -0.21951447 0.6078692 0.3079483 0.0831979 0.2163473 0.5155988 -1.276721 0.3602153 -0.16952129 0.34559792 0.1405122 0.53780943 -0.14473426 0.809561 -0.14561969 0.47117963 -0.1689542 0.57824165 -0.4999972 0.026299585 -0.55350167 0.24738257 0.511674 -0.1181008 -0.023401856 0.45341936 0.029109683 -0.5083288 -0.24136734 -0.21918637 -0.02574707 -0.31372213 1.043017 -0.097989134 -0.5575524 -0.25486168 0.032588296 0.21687816 -0.31225893 0.6197664 0.5828754 -1.3449084 -0.07677273 0.55017096 0.918031 0.33511254 0.54087627 0.32289457 -0.07396127 -0.23262744 0.8865997 -0.2992205 -0.93058956 0.6250491 -0.45660543 -0.38838938 -0.39907807 0.2608622 -0.45469728 0.4436251 0.10152275 -0.5212285 -0.5246083 -0.3805334 -0.2753565 -0.06347056 0.3871399 -0.67816633 0.3890992 -0.11298749 0.46319026
751 0.13988662 -0.103588715 -0.40591332 0.13609491 -0.33400995 0.49594304 0.18153095 0.5900667 0.034622192 0.05374718 -0.09567525 -0.31259578 0.07867631 -0.035156634 -0.71450347 0.1599235 0.20604025 -0.082123555 0.14475912 0.07539776 -0.16059989 -0.086884394 -0.28799182 0.09560873 0.6608362 -0.42258322 -0.23941207 -0.042752273 0.11000363 -0.19855253 -0.19570065 -0.16478878 -0.4023484 0.26352063 -0.093368046 -0.13869958 -0.00977207 0.5117761 -0.2880684 -0.14674503 0.16007228 0.2573823 0.44307745 -0.6399 0.43719578 0.22220102 0.13452777 0.23165073 0.3308572 0.3015833 -0.2103448 -0.6063051 0.3224458 -0.13693836 -0.13370277 -0.36626908 -0.44330904 -0.12933984 0.15257548 -0.31956995 0.31913233 -0.2015814 0.031965062 0.3937255 0.4454447 0.14818908 -0.019491635 0.3837441 -0.31623766 0.11260911 0.7592653 -0.058307443 0.12739241 -0.13018242 -0.6425909 -0.14528094 0.10686266 -0.35489655 -0.12040525 0.17153192 -0.45189485 0.47583726 -0.18981664 0.17422453 -0.65627116 0.3288672 -0.62695205 -0.040228363 -0.10835946 0.33918142 0.1531149 0.38901252 -0.18711725 0.15206672 -0.6811503 0.1407612 -0.03170723 0.59105784 0.30807275 0.037877955 0.13737687 -0.16362268 0.48607516 -0.23723382 -0.0126188835 0.03670312 -0.075200714 0.22339119 0.5421664 -0.27280006 -0.47099665 -0.40025708 -0.034425493 -0.009272422 0.13523236 0.40782788 -0.15974712 0.065139435 0.42375076 -0.0578188 -0.17179589 0.10882169 0.22220752 0.047326155 0.03141123 -0.65618926 -0.31520066 -0.5814099
805 0.25664878 -0.14012244 -0.30236804 0.14770536 -0.35092834 0.21817493 -0.047043957 0.3760385 0.026953783 -0.04105997 -0.13413967 -0.31068283 0.3538276 -0.021661056 -0.6060636 0.17181008 0.029074548 -0.1438357 0.32156742 -0.005090957 0.07528237 0.15213244 -0.37251887 -0.07058575 0.58222944 -0.38139892 -0.20115069 -0.06328081 0.11280804 -0.12957361 -0.08003505 -0.26360795 -0.39012384 0.4686608 -0.025510387 -0.1396447 -0.19699685 0.34608546 -0.4193929 -0.18154438 0.022836272 0.12752037 0.1772104 -0.396665 0.28043616 0.088841446 0.07343988 0.11124926 0.28679335 0.30374357 -0.20487688 -0.5130526 0.17045075 -0.3511077 0.032646857 -0.38377717 -0.49655786 -0.19908425 -0.004028994 -0.22414605 0.20572354 -0.3157809 0.0021765754 0.1594734 0.45343247 0.19316123 -0.09272625 0.37045825 -0.44065368 0.10177852 0.60798913 -0.034411527 0.048053708 -0.12398694 -0.61305666 -0.16256617 0.18494843 -0.2017108 -0.17263883 0.00560285 -0.4299115 0.43272352 -0.14137436 -0.18983376 -0.6057393 0.28183365 -0.46967965 -0.111398816 -0.18661876 0.22929603 0.09602145 0.3488739 -0.3244067 0.3278708 -0.51840764 0.22251938 0.30778852 0.5044542 0.2720855 0.02452527 0.17403117 -0.0035762363 0.12215495 -0.3092157 -0.06493008 0.25695813 -0.10876424 0.22794993 0.26255324 -0.33822387 -0.44464758 -0.15036711 0.012176419 -0.17629111 0.014393853 0.46401876 -0.18669574 0.1420404 0.2049239 -0.020706475 -0.40888557 0.22362497 0.26421767 -0.07125836 0.21229392 -0.47693512 -0.14737335 -0.13150449
2340 0.12133196 0.1800883 0.18076904 -0.5379234 0.35049513 -0.16525231 -0.21048826 -0.07090187 0.063999794 0.19650266 0.046572093 -0.007970906 -0.04887886 -0.356595 -0.40792847 -0.37256894 0.35026604 -0.3661912 0.41849735 0.31587556 -0.30481294 -0.25924292 -0.37740645 0.3316988 0.010216669 -0.09569621 0.12229308 -0.4267417 -0.3465866 -0.32353526 0.23026995 -0.14885274 0.20016699 0.034259953 0.1767558 -0.13812187 0.601286 -0.22790897 -0.01814055 0.47576398 -0.50566024 0.20290518 0.44437855 -0.44725552 0.54715955 -0.23778978 0.03345267 0.516602 0.55030173 -0.09849729 0.4354336 0.38283077 0.41239634 -0.11904745 0.23697141 -0.08933681 0.13211314 -0.023036426 0.23805217 0.09853993 -0.49344084 0.43651268 0.10338157 -0.2720621 0.21807082 0.44540825 -0.15953712 0.15216324 0.18232174 0.50364715 0.28178963 0.36245075 0.4362803 -0.14821625 0.041295435 0.5201498 0.22451225 -0.124014884 0.012473029 0.30012977 -0.33929896 -0.09055187 0.10815722 -0.6376766 -0.016237922 -0.26568708 0.0053569023 0.32990947 -0.14662904 0.7143614 0.039563533 0.27749267 -0.06454521 -0.17180052 0.026455328 -0.012123831 0.60284394 -0.038048115 -0.11141123 0.026219426 0.145132 0.24744877 0.11780731 -0.12810616 -0.2456214 0.06435513 0.13608018 0.34609166 0.3652026 -0.06479291 0.087312885 0.16195607 0.019072745 0.20411819 0.020973673 -0.24042729 -0.2300625 0.20258483 0.19142318 -0.4139572 -0.35000986 0.62338626 0.44631308 -0.44352552 0.56626076 -0.30724666 -0.05791165 0.25189734
2159 0.05346887 -0.17739025 -0.11838435 -0.15743679 0.42649594 -0.0652178 0.116791375 -0.30188522 0.09870893 -0.05640232 0.34957993 -0.06319814 0.22562191 -0.18483643 -0.023111852 -0.19040772 0.5240035 -0.47613826 0.21626715 -0.24893418 -0.12403463 -0.24650148 -0.2812589 0.030121384 0.079960495 -0.08090021 0.18209906 -0.330342 -0.122598305 0.15064052 0.3386579 -0.43727306 0.11214342 0.019335948 0.012686787 -0.030003905 0.19235589 -0.18846788 0.053948324 0.18150951 0.048542358 0.21440819 0.18472409 -0.008713884 0.24973847 0.02284974 -0.2617264 0.09047575 0.38888898 0.035813365 0.15784529 0.35002288 0.44895414 -0.39488673 0.22327593 -0.06108162 0.20716877 -0.06379261 0.067069955 0.508664 -0.29693577 0.36864564 0.15889904 -0.22807468 0.15380147 -0.068040974 -0.07086421 -0.04296075 0.18404399 0.22393298 0.4191213 0.06663058 0.21692318 -0.010932463 0.048486717 0.10826903 0.048078775 -0.18032381 -0.1440354 0.010595082 0.02341933 0.030184349 -0.045822844 -0.48963445 -0.2483249 -0.14593585 -0.02403669 0.09213195 0.035208244 0.27849716 0.15373498 0.1671431 -0.1729117 -0.12733954 0.13407888 0.14316815 0.15972619 -0.15910703 -0.010407085 0.19184229 0.36557347 -0.004019339 -0.040369693 -0.068675384 -0.1190338 0.1520753 0.18202733 0.014095827 0.25064763 0.0062329965 -0.23451334 0.008081241 0.34775022 -0.04200057 -0.15539971 -0.017713198 -0.2027098 0.1721568 -0.031909723 -0.38873762 -0.25546286 0.3956137 0.07729193 -0.1604553 0.24350427 -0.24980778 0.11716834 0.05625682
738 -0.14525053 0.28258777 -0.65728885 0.28416204 -0.0733546 0.33819166 -0.2027736 -0.052839316 -0.09704324 0.11897312 0.3244969 -0.16239066 0.07504603 -0.40275553 -0.14434427 -0.36503956 -0.38502714 -0.4513487 -0.11118228 0.013593016 -0.51000655 -0.23070991 0.2806826 -0.28707784 -0.55233955 -0.33411282 -0.13852343 -0.37492773 0.15652911 0.16427724 0.26368564 -0.2436876 -0.23918517 0.13057788 0.103691295 -0.28239578 0.2437487 -0.15408823 0.14323297 0.112422615 -0.17295703 0.25548646 0.23404144 0.043898948 -0.27577472 -0.013251483 0.18009926 0.4736513 0.2972245 -0.037663743 -0.38544628 0.0030834076 0.24676833 -0.13890703 0.47422656 0.5324119 -0.028314324 0.13166764 0.057658073 -0.34062484 0.348667 0.1474038 0.249282 -0.18738714 -0.037060153 0.06332037 -0.091556095 0.014992946 0.19179448 -0.3487283 -0.42052537 -0.35195562 0.17693439 0.0643349 -0.40626457 -0.008686614 0.2914108 0.12133232 -0.026188424 0.074553184 -0.019500487 0.102186605 0.29568774 -0.13817886 -0.34527278 -0.012993547 -0.19709933 0.059388272 0.018560525 0.021160813 -0.32030663 0.08611023 0.63428897 0.4022126 -0.19183616 -0.06711088 -0.27572167 -0.034792885 -0.15563367 -0.094812796 0.087347105 0.21435153 0.16674095 0.43222103 0.42613754 0.18966955 -0.34483477 0.3746812 0.33308482 0.21528853 0.045990273 -0.037653595 -0.2832208 -0.15578662 -0.5453818 0.077976726 -0.29097143 -0.6444968 -0.18161692 -0.17597833 0.11236446 0.21566388 -0.17969266 0.1044111 0.16160545 -0.1435217 0.3499995 0.031352993
465 -0.08893245 0.22157472 -0.46560153 0.09749595 -0.13482337 0.31519556 -0.17381424 0.0022770735 -0.036012877 0.13413695 0.2672893 0.03263417 0.07694658 -0.46367183 -0.11403254 -0.42739058 -0.3372418 -0.45843038 -0.1318548 -0.04643615 -0.6699687 -0.3448134 0.25201008 -0.37127182 -0.3640643 -0.33035907 -0.2348579 -0.4427473 0.059803233 0.18051142 0.18636967 -0.3561491 -0.09224108 0.20630927 0.12935673 -0.32002148 0.40942094 -0.032438885 0.15840478 0.40617093 -0.21580449 0.42871478 0.2063915 -0.026289722 -0.29093158 0.12549189 0.11809816 0.591893 0.3744967 0.02076614 -0.24802363 -0.11451451 0.28807023 -0.18009217 0.5124307 0.43161345 -0.11207562 0.044074867 -0.21036452 -0.4470523 0.5074882 0.2680626 0.17464456 -0.16553664 -0.132277 0.032289777 -0.034517743 0.05083743 0.10387633 -0.4025301 -0.33706743 -0.19711846 0.09709118 0.08778776 -0.12758926 0.2210144 0.37346292 -0.06926708 0.051225096 0.06378944 -0.075632185 0.1302708 0.35001934 -0.09535962 -0.31548464 0.016219739 -0.14171228 0.31365135 -0.023376895 0.056259356 -0.122450165 0.045756537 0.59384316 0.42214358 -0.31015596 -0.07361966 -0.17863868 -0.022052882 -0.07213369 -0.24404125 0.18260443 0.12131754 0.16569941 0.3907238 0.3410542 0.091376655 -0.1948837 0.2309434 0.08685496 0.013060994 0.008808667 -0.12291573 -0.32617986 -0.22852038 -0.61205053 0.14366992 -0.3657474 -0.51430494 -0.041568276 -0.26221627 0.2156029 0.12603413 0.20912676 0.031319924 0.21924524 -0.13790545 0.23677522 0.28150722
1697 0.39211014 0.4311066 0.11809637 -0.08522988 -0.36197618 0.39790037 0.030603657 -0.40327376 0.7075454 0.36463085 0.78304005 -0.55180436 0.3082474 0.32277745 -0.1903303 -0.3342959 0.64818513 -0.20347069 -0.4295179 -0.3209 0.4657757 -0.31976 -0.020911835 0.64599675 -0.023875937 0.7891953 -0.038327105 -0.2777475 0.41306672 -0.13228936 0.30827716 -1.1346344 -0.6270317 0.10378443 -0.28750786 -0.65412223 -0.4824734 -0.4746119 0.09707382 0.36561236 0.058843702 0.22712237 -0.06587892 -0.4090868 0.63484234 -0.25538626 0.2739494 -0.37667653 1.0126995 -0.14694037 0.10334302 -0.20535024 -0.11932093 -0.63845617 0.4338153 -0.25699416 -0.39999688 -0.078962095 -0.2992351 -0.2594566 0.22964787 -0.600877 -0.45654875 0.27862012 0.31572568 0.25791505 -0.37359303 0.34614423 0.02661929 0.8957993 -0.09432812 -0.21295892 -0.5783435 0.10646917 0.24004854 0.35550132 0.19594368 0.4200153 -0.34292135 0.47225115 -0.4363587 -0.49827597 -0.10578986 0.29180607 -0.50911623 -0.082503475 0.15030828 -0.23880205 -0.41619682 0.15964414 0.21943352 -0.43524745 0.11788622 0.29235387 0.356366 0.06838324 -0.3813253 -0.6061446 0.013923724 -0.27930176 0.4143079 0.14360324 -0.8943825 0.17233947 0.054640077 -0.15232845 -0.56638676 0.460758 -0.8753669 -0.22006221 -0.5291908 0.4018697 0.19598112 -0.71236867 0.21986236 0.14560598 -0.3561308 -0.28405684 -0.2806001 -0.037191685 0.19681261 -0.4904124 0.19578102 -0.040532812 -0.38924542 -0.31163788 -0.23210812 0.8630563
526 -0.14139739 0.24541639 0.043938756 0.13168298 -0.25550848 0.2147266 -0.05330443 -0.071547285 0.37694845 0.11092891 -7.88978e-05 0.18450397 -0.22438419 -0.014295837 -0.2450213 -0.1826054 0.39716935 0.0010705305 0.021409262 -0.12395354 -0.01893667 0.073486924 -0.15483397 0.19394761 -0.04749484 0.24324778 0.16203265 -0.13052878 -0.25963247 -0.035442628 0.2001979 -0.2528303 -0.086299375 0.012299564 -0.08436092 0.022057727 -0.0049549136 -0.14692642 0.100421816 -0.09063921 0.10774724 -0.058389563 0.1207682 -0.049673494 0.1983478 0.06320273 -0.22064662 -0.2323911 0.5504676 0.04188441 0.2669427 -0.08767658 -0.16438402 -0.39933148 0.35797748 -0.063273065 -0.21995986 -0.23269343 0.28985852 -0.15040693 -0.1284667 -0.08300237 -0.07282649 0.2361086 0.24859129 0.18786943 -0.25666246 -0.16142714 0.12589732 -0.1023187 0.09382484 0.0041223974 -0.032822326 0.12524143 -0.04045409 0.21302128 0.09626549 0.018388717 0.090297066 0.22688374 -0.15886642 -0.13951713 0.05468208 0.045315858 -0.13178855 0.14261758 -0.17540139 -0.3975666 -0.089739755 0.20156418 0.08615953 0.019736905 0.067173265 -0.05120182 0.19639385 0.16576418 -0.31660518 0.028740086 -0.0759811 -0.04570004 0.09644735 0.29527783 -0.17478149 0.11637607 -0.060338553 0.12861067 -0.41953832 0.25741112 -0.38368404 -0.034868985 -0.12770352 0.11130579 -0.021628268 -0.48807582 0.056283124 -0.06966363 -0.092468284 -0.09414844 -0.09412229 0.06548856 0.33012873 -0.1962523 0.041824877 -0.07215061 -0.10827597 -0.08032798 0.20152041 0.11713131
334 0.11235051 0.33651868 -0.33671182 -0.038203847 -0.26810947 -0.07903696 0.0064806077 -0.07300074 0.34195504 0.14886563 0.14423251 0.18916544 0.01776205 -0.51198494 -0.12536015 0.101347044 0.19892824 0.18073137 -0.03572203 -0.2779416 0.05659379 -0.23191568 -0.765171 0.2574344 0.2824403 -0.026492162 0.17330357 -0.5113595 -0.11429021 -0.23789446 -0.3269562 -0.19910607 -0.45630178 -0.3035392 0.33175632 -0.017869093 -0.24881223 -0.14317499 -0.15463556 0.46997976 0.65496004 0.15864563 -0.4210904 -0.43920243 0.21644387 0.4021006 -0.039601836 -0.018761257 0.104861096 0.2645401 -0.088781714 0.41837806 -0.14148428 -0.14562267 -0.035496447 -0.21761698 -0.50355446 0.560718 0.29090232 0.11256164 0.4367274 0.049822886 0.008188766 0.36316535 -0.020872055 0.18524653 0.049192533 -0.29241493 0.18308927 0.14961651 -0.026570627 0.011602377 0.4054363 -0.24241546 0.1692707 -0.2585511 0.20028788 -0.04429547 0.41785923 0.48976076 -0.20445722 0.15907139 -0.27179763 0.11585506 0.035375584 -0.040352736 0.018659173 0.19939306 -0.22145517 0.38778514 0.0069619855 0.15762487 -0.54978704 -0.25731686 0.1247246 0.023156794 -0.4917711 -0.21146376 -0.017865041 -0.2458531 -0.1003233 0.32678717 0.24117322 0.050303895 -0.08992245 0.2027077 0.6181107 -0.07989878 -0.18224029 -0.1706349 -0.044174865 -0.21866173 -0.0380025 0.0458881 -0.31382954 0.103923775 0.018200556 0.0218158 0.037887495 0.66106987 0.13501412 0.0847538 -0.19879438 0.18121926 0.311011 0.22603063 -0.05844075 -0.03882234
323 -0.37335184 0.58687943 -0.18893428 0.27717954 -0.21696173 0.07512615 -0.097597495 0.34728605 0.6294191 0.26474538 0.42796886 0.30011305 0.1592442 -0.49685138 -0.27292073 0.46814495 0.027244564 0.024085008 0.2870881 -0.081427 -0.029605925 -0.1750146 -0.7844356 0.28221276 0.17007533 -0.33494362 0.03091767 -0.11261001 -0.2306274 0.119388 -0.23038672 0.034471102 -0.33579615 -0.36431026 0.558838 0.23792885 -0.10443516 -0.27070794 -0.16111241 0.57015127 0.26672295 0.31304774 -0.38849115 -0.3410231 0.07544316 0.18476556 0.085219644 -0.035907134 0.22538882 0.028574334 0.34452125 -0.06389851 0.017320596 -0.10823573 -0.011602154 -0.008630331 -0.12406125 0.09855694 0.0361588 0.10283054 0.0925703 -0.30976084 -0.05522493 0.31950614 0.03865132 0.20832878 -0.020773614 0.0066139656 0.17944467 0.15109608 -0.1449221 -0.1920501 0.0652513 -0.41069898 0.30307195 0.006568976 0.5050134 0.060405448 0.44550946 0.26686978 -0.08290422 0.0026502272 -0.2806502 0.18472038 -0.27485391 0.03939223 0.23768315 0.08427468 -0.09142127 0.38342267 -0.12100518 0.08515566 0.2979495 -0.03875725 0.21090269 0.30445403 -0.45691052 0.03101449 -0.13582869 0.17708346 -0.24207155 0.19829376 0.083219565 -0.24163768 0.14784509 -0.31756288 0.27781856 -0.14060181 -0.44705504 -0.29255068 0.24951373 0.3238433 0.26538613 0.18568301 -0.95700854 0.28665924 0.00900012 -0.10553051 -0.07161826 0.24761641 0.32290792 0.13053223 -0.16487314 -0.087010264 -0.07835408 0.19752459 0.49238726 -0.22619265
1310 0.19936801 0.26986682 0.09274647 0.060960773 0.095071256 0.11144844 0.025028167 -0.13200584 0.06488371 0.44254553 0.104494855 -0.124524325 0.0054756724 -0.27806136 -0.099775895 -0.2041589 0.089989394 0.04708431 -0.32474875 -0.10235926 0.08587836 -0.17794468 -0.12722452 0.23228528 -0.008084457 0.18561189 0.22778301 0.040032767 -0.53932536 -0.43213707 0.09579644 -0.0558725 -0.20862408 0.39967826 0.12243695 -0.18421762 0.04947111 -0.00018636197 -0.037263647 0.16614826 0.24571532 0.16503027 -0.4876374 0.16146308 0.079218015 0.24578598 -0.24005626 -0.17053531 -0.07065425 -0.00850852 0.30516985 0.25733593 -0.022937953 0.00785344 0.035625696 -0.32839948 0.20755583 -0.13468109 -0.15706453 0.00045045523 -0.08684424 0.10620839 0.09878927 0.13794744 0.28153718 -0.104467355 0.15212618 0.13501826 0.08127148 0.12987928 -0.07328246 0.08560104 0.24455367 -0.031620424 -0.16524242 0.10883312 0.24904509 0.0069749462 0.10022859 -0.15595858 -0.18142131 -0.31782487 0.52070665 -0.1369461 -0.63866174 0.3612165 -0.12413427 -0.041842457 0.5082338 0.053733043 -0.036522552 0.009604892 0.1354309 0.054233827 -0.05090119 0.2847257 -0.2628723 0.38800654 -0.38782904 0.42309174 -0.0029336028 0.29398397 -0.24569964 -0.05035408 -0.070323855 -0.30050275 0.011459705 0.27223593 -0.44271907 -0.20029464 0.05094103 -0.10270207 -0.049683236 -0.39721063 -0.36399555 0.21188994 -0.085229814 -0.16843627 -0.043073237 -0.049013402 0.36691228 -0.08744214 0.14112863 -0.018042237 -0.15203892 0.011747976 0.16877022 0.12342163
510 0.056946326 0.19702789 0.31009284 -0.25276846 0.5306922 0.18879148 -0.121972464 -0.060338218 -0.07273544 0.32381132 -0.009005211 -0.004083434 -0.19688812 0.13693485 -0.2580062 -0.11053997 0.2199361 -0.12302094 -0.11253468 0.041217018 0.13546455 0.10935334 -0.09057337 0.2475439 -0.029719992 0.03216263 0.21502985 0.19608478 -0.025895113 -0.40789372 -0.087877825 0.016781896 -0.2816622 0.037101857 0.031703286 -0.07690433 -0.01757916 -0.25736633 -0.19749668 0.46031553 -0.048309967 -0.055333298 -0.35489905 0.035647348 0.16714203 -0.21749832 -0.22843604 -0.13414471 -0.123674475 0.29816714 0.23204726 -0.081725515 -0.28137404 0.23319219 0.074151605 -0.21018966 -0.078900695 -0.06417789 -0.19986355 -0.17156397 0.117574975 0.22679451 0.05708081 0.08773527 0.13275719 0.08321459 0.25751612 0.19244847 -0.021677045 0.18773916 0.12607913 0.27310643 -0.120553054 -0.1994652 -0.07524444 0.05017734 0.15503564 -0.035440106 -0.2560187 -0.018364182 -0.3573616 -0.05053292 0.10351302 0.045613766 -0.105859496 0.11943227 -0.26879632 0.12829486 0.23167782 -0.09946498 -0.34728965 0.36301994 -0.2904268 0.08899072 -0.017087283 0.37715092 -0.001019421 0.28677955 -0.21869053 0.068008564 -0.17398384 0.105585285 0.25664535 0.29463282 0.07243277 0.08574622 0.0075400895 0.24386619 -0.02898 -0.09431877 0.4656216 0.044112433 -0.03071115 -0.49767113 -0.30882898 -0.07318941 -0.35617888 -0.11523117 -0.2003275 -0.12082002 0.17318341 0.019908559 0.07925014 -0.02488061 -0.37029338 -0.011973076 0.39114523 -0.019932063
12 0.099613085 0.599011 0.032256808 0.39921802 0.039705075 0.6124268 -0.17157608 -0.2808064 -0.47506928 0.21453252 -0.0689287 -0.12957893 0.2369087 -0.20755585 0.08015293 -0.021971023 -0.21548237 0.11803265 0.16365215 -0.19228673 0.40855354 0.31246167 -0.015410354 0.15585604 0.21834604 -0.21330592 -0.14640339 -0.44245365 0.052696664 0.4849694 -0.40252602 -0.11995079 0.16777524 -0.011503766 0.35776448 -0.630342 -0.45812842 -0.32759812 -0.19480278 -0.11264818 0.021993687 0.16181664 -0.05711715 -0.13832596 0.19335175 0.3981001 -0.10406192 0.35328457 0.47051442 0.3454014 0.61501145 0.16191903 0.23483679 0.18973738 -0.42485455 -0.09907081 0.2969985 0.16429214 0.5401071 -0.24628703 -0.05056269 -0.18894126 -0.25772324 -0.4154524 0.2454979 -0.13468568 0.7537607 0.544681 0.22290672 0.07880922 0.34470832 -0.25885102 -0.1935182 -0.2180584 -0.27611032 -0.15740201 -0.16424693 0.12367822 0.35658965 0.19445184 0.04174324 0.23506956 -0.42578757 -0.15517831 0.13891825 -0.25619414 -0.43082178 -0.14541309 -0.16773573 -0.47771457 0.45882818 0.06263982 -0.2392427 -0.13005096 -0.075063266 0.24533984 0.17420903 0.23699978 -0.15679117 0.12498073 0.13609496 0.47262216 -0.15855059 0.69981134 0.07761951 -0.42177185 -0.0068284515 0.5141769 0.21337539 0.14115173 0.33583972 0.059608463 0.14749363 -0.0036234097 -0.19082732 -0.02516505 -0.014733044 -0.24481848 0.085607015 0.04840562 -0.013692229 0.29995474 -0.1423775 -0.33551627 -0.19879995 0.2955958 -0.41220665 -0.16317005
181 0.18831529 0.23344883 -0.6048827 -0.031411592 0.4152518 -0.17929825 0.2804526 0.07779782 0.10517849 0.49636984 -0.13278031 -0.48180205 0.18815589 -0.19360353 0.080497645 -0.24366686 0.3998796 0.08074701 0.13204911 0.075048536 0.13162461 0.22221205 0.4924167 -0.1487498 -0.0900998 0.0051018517 -0.08727055 -0.023050362 0.52068883 0.29503265 -0.098219395 -0.17277147 0.047696806 -0.02669967 0.3677149 0.28752998 -0.08733161 0.35333267 -0.46626133 0.19165112 0.043212693 -0.15524101 0.02164088 -0.08937146 0.34040093 0.13913527 -0.18944295 0.36717105 0.37266538 -0.013650642 0.045534644 0.2155674 0.12579511 -0.34064564 -0.12640253 -0.042111997 0.36615324 0.15674056 0.1909543 0.13794611 -0.35418984 -0.07455116 -0.5645811 -0.009304684 0.056013253 0.28316686 0.13615175 0.32922295 0.18883334 -0.6248714 -0.20772623 0.08023971 0.008219932 0.062356435 -0.06725654 -0.21606581 0.050976284 -0.053302683 0.1752017 0.12480174 0.029331842 -0.20278122 0.08078009 -0.15310901 0.16603261 0.5040538 0.05814568 0.02851381 -0.2348123 -0.4925049 -0.3093863 -0.042439193 -0.07246026 0.20328917 -0.07791682 0.3146296 -0.20575562 0.11856257 -0.35855442 0.25050825 0.11464048 0.3893994 0.44213507 0.06853686 0.31182012 0.038047697 -0.07622318 0.012868784 -0.0807565 -0.013721875 -0.112868406 0.039396957 0.13612457 0.014930394 0.14580458 0.19060113 -0.29964638 -0.22938764 0.5266125 0.51897156 0.14228185 0.16631994 -0.08846099 -0.3325006 -0.22370666 -0.15147948 -0.07446506 -0.26293212
66 0.030655932 0.32888907 -0.5887332 -0.12300901 0.2935562 -0.2580208 0.2980249 -0.06266882 -0.006007322 0.3737251 0.035504047 -0.4179139 0.18966757 -0.19292395 -0.057889797 -0.41898173 0.14778468 0.09178103 0.31073055 -0.20976269 -0.3295612 0.06588619 0.3506771 -0.25361794 0.25137877 -0.01009621 -0.23826562 -0.016941084 0.44388518 0.074789375 -0.09987893 -0.30876264 -0.20299532 -0.124565504 0.2426672 0.016566053 0.15675966 0.26956162 -0.31627786 0.43359345 0.26171237 0.044845607 0.21713576 -0.0074750436 0.54574627 0.06908303 -0.17187549 0.24837852 0.42653745 -0.04598034 0.10652546 0.33639446 0.16504262 -0.22153796 -0.049608607 0.12897836 0.45217133 0.021869102 0.13042435 -0.126538 -0.40125993 -0.22400616 -0.5490308 -0.1230272 -0.10306249 0.34718627 0.028640512 0.15881991 -0.10868038 -0.31737638 -0.31504342 0.0010128972 -0.047836863 0.060398728 -0.023307268 -0.23773548 0.043458227 0.022974668 0.28636298 0.06811421 -0.072168 -0.023534238 0.25202072 -0.04988129 -0.10989961 0.27103442 0.21331118 -0.37658975 -0.115982495 -0.629465 -0.46774724 -0.09325233 0.002623919 0.24779297 0.05811961 0.1922511 -0.039954077 0.34445027 -0.48968643 0.24920596 -0.060978822 0.34045756 0.18963343 0.0016273288 0.29031172 0.025906587 -0.10288836 0.015996257 -0.14534773 -0.017778765 -0.14293654 0.08873811 0.1569772 0.0942193 0.14784549 0.04821267 -0.39650053 -0.3666471 0.21020348 0.49920997 0.0876756 0.06008827 -0.271377 -0.21073024 -0.2592903 -0.1681943 0.007406348 -0.19541682
2110 0.3618379 -0.04378734 -0.09419653 -0.59179646 0.20516957 -0.18718699 0.44121957 -0.36198428 0.21569549 -0.16154896 0.44452986 0.03902064 0.3264681 -0.18312581 0.43248567 -0.48805115 0.38552234 -0.31691718 0.35244155 -0.34208924 -0.08742294 -0.30976665 -0.63672197 0.31309944 0.38487485 0.054180037 0.12200316 -0.33471096 -0.22562009 0.21355383 0.43580136 -0.77020985 0.46450981 -0.07465213 -0.35726964 -0.01602049 0.5209237 -0.249939 -0.08891407 0.25397208 -0.01877901 0.106936455 0.213435 -0.16426943 0.28732774 0.2551226 -0.19861856 -0.308951 0.29201573 0.036686566 0.04275468 0.490151 0.2893168 -0.36903223 0.08238452 0.08685781 0.9269485 -0.098862216 -0.11388717 0.6037699 -0.331557 0.6876415 0.092408046 -0.049223825 0.21222135 0.03369103 -0.20366473 0.23646556 -0.13138528 0.43512377 0.28580865 -0.1924367 0.29971072 0.19686827 0.22191268 0.16072623 0.2555948 -0.21064012 0.30436423 0.297451 -0.23880076 0.24184906 -0.17823532 -0.69573873 -0.3020986 -0.223047 0.041776985 0.47880962 0.20800842 0.6444426 0.2392361 0.1062496 0.113582335 0.26538396 -0.14759493 0.27848068 0.073135175 0.04861778 0.12760621 0.3719358 -0.063240066 -0.13630787 -0.15550177 0.55399793 -0.21257523 0.26300055 -0.12150409 -0.26101658 0.52485746 0.29947454 -0.34335384 0.019837935 0.38979045 0.0977416 -0.51270264 -0.3830309 -0.17220892 0.48323625 0.16921456 -0.2201385 -0.3936807 0.4185976 -0.40503246 -0.4885382 0.27629745 -0.28415272 0.58301663 0.31669447
1646 0.159815 0.109310135 -0.27366105 -0.4325313 -0.16621648 0.036009483 0.45667014 -0.15188622 0.41573107 -0.2416453 -0.06793801 -0.022918485 -0.06838274 0.1131363 0.15868035 -0.016808562 -0.15943189 0.14533016 0.17603819 -0.046049833 0.02762472 -0.06852247 -0.32537934 0.042168997 0.09934534 -0.28714633 0.27627602 -0.29050726 -0.26155248 0.074859604 0.058708332 -0.2800113 -0.018608067 0.3340592 -0.21568167 -0.0062841857 -0.04372283 0.2212602 -0.17706922 0.2235955 -0.009900603 0.0496109 -0.27118337 -0.32135648 -0.004432347 -0.06890262 -0.088571034 -0.25911453 0.35424927 -0.13022022 -0.0904904 -0.15150596 0.0028156163 -0.39081678 0.26126036 -0.07598511 0.1986076 0.0014373801 -0.11263572 0.035520047 0.20921095 0.36144206 -0.10517389 -0.044696167 0.1654063 0.048297483 -0.1142001 0.07630887 -0.26049572 0.33895108 0.2698268 -0.2323938 0.067659155 0.17064822 -0.021399997 -0.043959368 0.0071957516 -0.07651832 0.54432094 0.31850645 -0.35851893 -0.042030465 -0.32960486 -0.427725 -0.011777052 0.16179006 0.26162615 -0.16266942 0.16141462 0.06662245 0.19451484 0.109266326 0.42708838 0.09062687 -0.14251454 0.26849696 -0.060002703 0.19732423 0.04605584 0.1988483 -0.08310346 -0.13783088 -0.00751312 0.44363943 -0.08182642 -0.080581844 -0.18049628 0.06337654 0.63246506 0.49253365 -0.0992143 0.082808845 0.2262869 -0.058059882 -0.25995564 -0.18175808 -0.24801916 0.330198 0.20402037 -0.4140433 -0.13371097 -0.008937783 -0.074768595 -0.06800668 -0.016705677 -0.13243237 0.43256384 0.3133128
